-0.0261122	-0.0166481	-0.0293125	0.0485826	0.049969	-0.00939306	-0.0153807	0.0299578	-0.00750196	0.0291153	-0.0298761	-0.00625033	0.0175801	0.0295339	0.00381883	0.0399245	-0.0407639	-0.0133507	-0.00285425	0.0448834	-0.000531256	-0.0159598	-0.0425884	-0.0112262	0.00421027	0.0167451	0.019167	0.0440591	0.0419367	0.0289489	0.0490059	-0.00232147
-0.45953	0.404947	0.501635	0.462813	0.487789	-0.4668	0.444269	-0.53128	-0.491381	-0.488417	-0.461851	-0.382582	0.51928	-0.509486	-0.428395	0.442622	-0.416029	-0.441902	0.471567	-0.481725	0.398049	-0.456884	0.418706	-0.458088	-0.466579	0.48321	-0.453358	0.493394	0.45847	-0.444743	0.435434	-0.460702
-0.491917	0.532424	0.483613	0.452239	0.481537	-0.361183	0.529115	-0.426374	-0.374571	-0.399174	-0.536934	-0.495073	0.517585	-0.442913	-0.350728	0.331224	-0.485453	-0.486404	0.541769	-0.517728	0.457299	-0.433287	0.463243	-0.495532	-0.390261	0.493164	-0.502653	0.40387	0.452462	-0.411442	0.422163	-0.413192
-0.486608	0.407413	0.513123	0.458084	0.401944	-0.427786	0.538719	-0.450866	-0.423327	-0.523764	-0.437836	-0.447457	0.41447	-0.488616	-0.455637	0.491019	-0.485804	-0.443493	0.443861	-0.47469	0.418283	-0.520242	0.400763	-0.421677	-0.427237	0.317405	-0.487435	0.510577	0.467001	-0.534281	0.516393	-0.39255
-0.40159	0.445795	0.417806	0.43609	0.400386	-0.425721	0.436103	-0.389888	-0.382783	-0.402627	-0.390346	-0.357612	0.523265	-0.401447	-0.506332	0.498764	-0.411236	-0.480118	0.474898	-0.416943	0.406902	-0.495868	0.504482	-0.447187	-0.494937	0.512063	-0.423892	0.503693	0.494682	-0.483973	0.500945	-0.420309
-0.464686	0.483272	0.435436	0.421854	0.511595	-0.521761	0.503307	-0.415135	-0.510303	-0.454897	-0.42013	-0.407509	0.488069	-0.388335	-0.408277	0.395347	-0.424204	-0.407284	0.465333	-0.484083	0.536162	-0.476399	0.431655	-0.436296	-0.537725	0.253098	-0.501541	0.392201	0.54321	-0.468592	0.450907	-0.547478
-0.405202	0.250594	0.483399	0.460016	0.530746	-0.552931	0.346809	-0.429161	-0.534778	-0.4483	-0.461305	-0.355343	0.303182	-0.513804	-0.456898	0.570728	-0.360834	-0.495537	0.414158	-0.491053	0.601069	-0.523284	0.533247	-0.352119	-0.404156	0.189374	-0.462287	0.509622	0.552956	-0.61239	0.518756	-0.38503
-0.433434	0.442376	0.492955	0.407717	0.447942	-0.460808	0.431456	-0.46721	-0.435095	-0.391042	-0.461374	-0.485756	0.473177	-0.457981	-0.457144	0.367597	-0.373296	-0.370708	0.47024	-0.452526	0.55043	-0.454152	0.483327	-0.495725	-0.493405	0.502375	-0.483877	0.495708	0.413048	-0.43221	0.446877	-0.504623
-0.428151	0.402238	0.410368	0.464549	0.464513	-0.379901	0.234227	-0.41903	-0.477166	-0.484139	-0.426583	-0.430861	0.493479	-0.446037	-0.423323	0.544554	-0.504697	-0.425816	0.47786	-0.379871	0.428063	-0.43873	0.37498	-0.444301	-0.489936	0.491157	-0.48224	0.488408	0.454215	-0.433176	0.433022	-0.474946
-0.453306	0.3297	0.479908	0.466569	0.432848	-0.443448	0.314314	-0.478319	-0.46318	-0.393765	-0.491051	-0.328723	0.386384	-0.449346	-0.395052	0.48937	-0.443161	-0.458033	0.466279	-0.387686	0.518166	-0.428025	0.387113	-0.445992	-0.301533	0.47097	-0.461511	0.441363	0.505698	-0.435263	0.486635	-0.487583
-0.514109	0.511408	0.480749	0.445733	0.4919	-0.469146	0.444429	-0.397075	-0.492716	-0.429458	-0.419606	-0.37833	0.47505	-0.40665	-0.497961	0.494107	-0.420491	-0.503327	0.509446	-0.420255	0.537851	-0.40921	0.487757	-0.390213	-0.503923	0.25888	-0.430664	0.453601	0.438611	-0.378351	0.400422	-0.521112
-0.426263	0.5575	0.502196	0.459851	0.42221	-0.462646	0.451612	-0.421074	-0.401751	-0.401004	-0.538174	-0.427665	0.468331	-0.495488	-0.411246	0.468948	-0.532615	-0.400386	0.486125	-0.444781	0.433669	-0.401342	0.495921	-0.347835	-0.452061	0.359111	-0.43643	0.469292	0.482448	-0.416378	0.537913	-0.521515
-0.417289	0.42163	0.429537	0.413047	0.461844	-0.510523	0.386693	-0.433725	-0.461657	-0.414908	-0.43657	-0.40704	0.429684	-0.458285	-0.408129	0.521631	-0.41533	-0.443279	0.51358	-0.412504	0.470395	-0.493464	0.423151	-0.530908	-0.439833	0.444166	-0.447978	0.43481	0.502177	-0.4717	0.417102	-0.520229
-0.466714	0.396647	0.419497	0.474369	0.493482	-0.516909	0.529481	-0.476895	-0.499079	-0.40914	-0.516574	-0.440425	0.372865	-0.520603	-0.42067	0.457338	-0.510512	-0.469851	0.502157	-0.52012	0.500386	-0.421193	0.466778	-0.462346	-0.429064	0.476079	-0.512963	0.422297	0.483671	-0.420604	0.421184	-0.380923
-0.525301	0.486892	0.431832	0.549212	0.495861	-0.446024	0.501413	-0.487351	-0.363159	-0.42121	-0.501528	-0.393521	0.559854	-0.434906	-0.43838	0.38392	-0.431979	-0.478353	0.538212	-0.507292	0.46578	-0.533098	0.413803	-0.435543	-0.36543	0.494174	-0.497508	0.476929	0.509253	-0.527607	0.365261	-0.436736
-0.484855	0.558893	0.50128	0.435257	0.433297	-0.415307	0.560536	-0.464284	-0.473733	-0.488396	-0.48117	-0.538142	0.499217	-0.471622	-0.421597	0.366246	-0.432197	-0.493269	0.54355	-0.469529	0.276194	-0.418544	0.494468	-0.397933	-0.498286	0.407014	-0.422584	0.510351	0.422039	-0.539397	0.508422	-0.489588
-0.475443	0.428096	0.445394	0.503697	0.503596	-0.414356	0.449885	-0.347136	-0.504424	-0.419621	-0.505931	-0.395833	0.509663	-0.418971	-0.423134	0.38638	-0.368129	-0.476554	0.407395	-0.461715	0.487403	-0.407733	0.417736	-0.418151	-0.481773	0.472338	-0.426623	0.419149	0.460797	-0.476184	0.389434	-0.479724
-0.466517	0.385093	0.470411	0.523458	0.50728	-0.468056	0.37521	-0.488189	-0.511758	-0.475354	-0.439937	-0.429876	0.358746	-0.452934	-0.51723	0.569434	-0.40507	-0.389335	0.475609	-0.491232	0.359755	-0.403624	0.435739	-0.424301	-0.413224	0.445054	-0.41232	0.502858	0.495638	-0.396749	0.424989	-0.402949
-0.406481	0.484198	0.421807	0.439121	0.375869	-0.468017	0.381862	-0.433414	-0.356895	-0.486554	-0.408643	-0.430493	0.311881	-0.495271	-0.469243	0.316307	-0.53085	-0.393115	0.549857	-0.411889	0.25186	-0.414179	0.385661	-0.495241	-0.428453	0.591789	-0.450781	0.516795	0.519206	-0.446528	0.351463	-0.545569
-0.478538	0.416216	0.487594	0.501469	0.374491	-0.451599	0.368492	-0.523446	-0.472665	-0.490382	-0.397011	-0.489318	0.349505	-0.393114	-0.427731	0.489663	-0.475713	-0.407294	0.427442	-0.477471	0.564956	-0.438298	0.359488	-0.313569	-0.532345	0.496514	-0.379848	0.464408	0.326401	-0.461977	0.47139	-0.45047
-0.455664	0.416513	0.512393	0.534166	0.45359	-0.375076	0.512817	-0.408292	-0.401148	-0.519586	-0.46704	-0.399817	0.541488	-0.420679	-0.513722	0.443575	-0.371758	-0.358315	0.543769	-0.397536	0.489468	-0.440954	0.511542	-0.448359	-0.398662	0.475372	-0.487669	0.487996	0.497525	-0.546174	0.524464	-0.451504
-0.422443	0.490563	0.408918	0.494985	0.506074	-0.421703	0.499035	-0.512827	-0.523122	-0.52518	-0.442561	-0.45882	0.440902	-0.413082	-0.419359	0.417097	-0.506864	-0.45937	0.562799	-0.43755	0.505897	-0.427405	0.464232	-0.473717	-0.544006	0.442455	-0.471501	0.41458	0.500347	-0.318626	0.400647	-0.387408
-0.496242	0.511979	0.483256	0.515609	0.451832	-0.424697	0.360953	-0.418903	-0.385297	-0.391439	-0.472008	-0.424893	0.484142	-0.465875	-0.444596	0.427391	-0.536832	-0.400186	0.526416	-0.541273	0.537252	-0.505013	0.448026	-0.544383	-0.455374	0.430651	-0.416074	0.441741	0.52908	-0.356239	0.426433	-0.437797
-0.42314	0.468297	0.499893	0.432189	0.466429	-0.447896	0.416191	-0.472434	-0.420987	-0.4311	-0.452867	-0.487574	0.51452	-0.512288	-0.510986	0.477097	-0.516317	-0.471693	0.44891	-0.439035	0.46248	-0.431008	0.526129	-0.477027	-0.490236	0.406428	-0.410385	0.446869	0.459067	-0.385438	0.4768	-0.465135
-0.482988	0.515501	0.443889	0.512498	0.480067	-0.450734	0.50721	-0.39913	-0.486904	-0.474171	-0.513488	-0.493248	0.337623	-0.471443	-0.426237	0.439242	-0.392061	-0.37534	0.46732	-0.518357	0.299647	-0.479557	0.518495	-0.458522	-0.438663	0.325498	-0.500635	0.434721	0.494985	-0.302977	0.448306	-0.486455
-0.460607	0.435182	0.521385	0.527913	0.502756	-0.412985	0.364127	-0.417461	-0.528394	-0.491889	-0.511207	-0.502132	0.497984	-0.455386	-0.437753	0.334018	-0.501339	-0.524112	0.423684	-0.494927	0.452424	-0.482366	0.451619	-0.428166	-0.432103	0.374724	-0.470226	0.504048	0.441268	-0.471492	0.402	-0.429505
-0.514743	0.468837	0.513657	0.462234	0.507735	-0.405452	0.520928	-0.413115	-0.407603	-0.455767	-0.436825	-0.40261	0.309578	-0.47585	-0.440499	0.412347	-0.509652	-0.45152	0.431773	-0.490498	0.318976	-0.441367	0.49854	-0.367856	-0.401251	0.396123	-0.492958	0.459374	0.442941	-0.481683	0.448293	-0.50371
-0.458454	0.427981	0.528222	0.408774	0.495943	-0.526477	0.441093	-0.466522	-0.466781	-0.408077	-0.534685	-0.538354	0.496304	-0.473735	-0.420377	0.350764	-0.401581	-0.377021	0.525253	-0.418625	0.501881	-0.514591	0.493989	-0.506367	-0.460663	0.382255	-0.429321	0.447926	0.489828	-0.481728	0.512295	-0.480007
-0.350294	0.42341	0.480192	0.436536	0.406463	-0.519278	0.445449	-0.394244	-0.381414	-0.408947	-0.420084	-0.376683	0.483172	-0.354226	-0.414113	0.585136	-0.458888	-0.4682	0.377826	-0.420638	0.571918	-0.374011	0.398827	-0.444324	-0.420081	0.475608	-0.430233	0.393959	0.37334	-0.309707	0.349096	-0.323715
-0.442151	0.516915	0.512961	0.457636	0.41261	-0.388384	0.594228	-0.519197	-0.518312	-0.459246	-0.508914	-0.410643	0.516912	-0.457146	-0.351262	0.348255	-0.411747	-0.412756	0.410042	-0.451414	0.296933	-0.461703	0.494828	-0.441563	-0.487824	0.558463	-0.437289	0.465927	0.492488	-0.525172	0.515912	-0.517851
-0.526327	0.493632	0.438131	0.426924	0.503005	-0.491696	0.551639	-0.442295	-0.429759	-0.534543	-0.53525	-0.402359	0.432539	-0.4473	-0.48755	0.406447	-0.438903	-0.461533	0.534507	-0.429975	0.288687	-0.481478	0.500247	-0.41892	-0.465876	0.501285	-0.484551	0.445703	0.46553	-0.506865	0.405607	-0.504007
-0.486323	0.439639	0.417104	0.513906	0.497572	-0.397996	0.52263	-0.524877	-0.3981	-0.470718	-0.48408	-0.382972	0.414368	-0.385386	-0.507802	0.45105	-0.488217	-0.422691	0.475055	-0.444374	0.498081	-0.453395	0.439205	-0.506196	-0.532537	0.467932	-0.420095	0.47076	0.4798	-0.440414	0.441079	-0.382069
-0.489442	0.522501	0.440833	0.547112	0.448069	-0.407335	0.502756	-0.420896	-0.386513	-0.474701	-0.488432	-0.457087	0.548191	-0.514245	-0.433425	0.429313	-0.422058	-0.522061	0.358318	-0.417179	0.457862	-0.453656	0.44944	-0.433989	-0.371332	0.460822	-0.5271	0.518562	0.489936	-0.389956	0.376636	-0.54198
-0.484751	0.448582	0.454307	0.479368	0.524214	-0.395862	0.503986	-0.453008	-0.442307	-0.407776	-0.429307	-0.506309	0.535213	-0.43645	-0.354375	0.527359	-0.413634	-0.469802	0.509011	-0.40375	0.333702	-0.489201	0.514414	-0.497497	-0.420896	0.279703	-0.433959	0.52032	0.41823	-0.454485	0.526792	-0.486852
-0.559591	0.512983	0.514709	0.41767	0.475788	-0.53275	0.498918	-0.483737	-0.518624	-0.45501	-0.482002	-0.489815	0.480665	-0.453331	-0.451219	0.297243	-0.5103	-0.502041	0.444343	-0.476746	0.283419	-0.444724	0.549377	-0.501511	-0.474047	0.446803	-0.442363	0.439916	0.444204	-0.580386	0.532837	-0.430544
-0.41523	0.506176	0.420428	0.385737	0.410983	-0.541107	0.481031	-0.385407	-0.432846	-0.462685	-0.533698	-0.446543	0.5207	-0.394452	-0.435503	0.418737	-0.516752	-0.441606	0.488231	-0.463815	0.28613	-0.542325	0.457655	-0.443798	-0.417996	0.577655	-0.501332	0.464896	0.417054	-0.418401	0.500475	-0.514943
-0.538021	0.527998	0.510725	0.460734	0.444879	-0.400541	0.458773	-0.454589	-0.42028	-0.538933	-0.477494	-0.465689	0.449662	-0.406422	-0.430689	0.362243	-0.421003	-0.395645	0.536867	-0.528306	0.471074	-0.480634	0.438809	-0.503796	-0.475572	0.410444	-0.499479	0.430507	0.475114	-0.376232	0.503471	-0.439707
-0.485341	0.484315	0.482421	0.541262	0.469253	-0.463312	0.449455	-0.431087	-0.470679	-0.465012	-0.439156	-0.456826	0.457132	-0.486079	-0.465112	0.370951	-0.491433	-0.52183	0.366241	-0.487034	0.415675	-0.50256	0.480994	-0.481454	-0.513726	0.529313	-0.433172	0.462279	0.408031	-0.362938	0.470146	-0.40582
-0.420752	0.433441	0.462177	0.415935	0.489317	-0.455249	0.541048	-0.425321	-0.51	-0.479474	-0.425315	-0.536927	0.469643	-0.500073	-0.487127	0.493277	-0.355489	-0.437409	0.436309	-0.487662	0.497436	-0.477713	0.462464	-0.50601	-0.467049	0.394057	-0.488635	0.403381	0.494667	-0.551501	0.418696	-0.429235
-0.456497	0.489682	0.459839	0.382261	0.485722	-0.525975	0.449976	-0.393973	-0.421951	-0.503356	-0.478224	-0.473408	0.374109	-0.449044	-0.515059	0.436887	-0.454891	-0.494496	0.491235	-0.454754	0.44619	-0.490477	0.474854	-0.429584	-0.443841	0.561482	-0.416652	0.467326	0.4809	-0.299293	0.480163	-0.447941
-0.435446	0.493632	0.469959	0.396892	0.444433	-0.456224	0.480494	-0.468881	-0.43594	-0.424949	-0.494466	-0.489298	0.367787	-0.458945	-0.432903	0.473287	-0.523308	-0.386817	0.425636	-0.432961	0.361601	-0.464957	0.531671	-0.386447	-0.449815	0.454031	-0.431737	0.50126	0.521889	-0.535755	0.478133	-0.519932
-0.477014	0.484076	0.397268	0.421238	0.39641	-0.380671	0.442856	-0.423839	-0.406933	-0.433738	-0.45484	-0.374513	0.486042	-0.388474	-0.435653	0.409973	-0.483197	-0.507786	0.527547	-0.367006	0.379665	-0.495319	0.446818	-0.390359	-0.479529	0.478655	-0.441308	0.495957	0.513006	-0.411544	0.482458	-0.375585
-0.468738	0.426034	0.527208	0.421829	0.416571	-0.479837	0.383674	-0.493412	-0.450633	-0.487862	-0.518053	-0.486953	0.381475	-0.477341	-0.496578	0.471645	-0.524736	-0.395461	0.50966	-0.473398	0.362238	-0.497379	0.451984	-0.426323	-0.446784	0.529069	-0.486312	0.451873	0.415333	-0.296682	0.459653	-0.436239
-0.531086	0.39331	0.532694	0.439125	0.42907	-0.451787	0.410776	-0.439046	-0.482814	-0.439586	-0.453483	-0.394202	0.518593	-0.521196	-0.480786	0.482684	-0.424036	-0.540257	0.402632	-0.423212	0.554812	-0.450163	0.49227	-0.439867	-0.512288	0.410578	-0.480969	0.511684	0.449712	-0.418863	0.489592	-0.432345
-0.430461	0.447929	0.389364	0.538572	0.464311	-0.519032	0.293661	-0.439013	-0.46274	-0.419503	-0.492693	-0.353194	0.483848	-0.49885	-0.405862	0.452654	-0.428977	-0.405757	0.477203	-0.373525	0.456357	-0.42429	0.439598	-0.453524	-0.408277	0.361138	-0.507625	0.508661	0.494934	-0.498972	0.429989	-0.482047
-0.397005	0.479294	0.382592	0.448176	0.488653	-0.426687	0.342629	-0.426141	-0.496215	-0.534752	-0.508097	-0.49474	0.394977	-0.453496	-0.500258	0.256178	-0.402731	-0.365147	0.542207	-0.371766	0.330452	-0.469546	0.480287	-0.47231	-0.38623	0.552207	-0.487076	0.424966	0.491049	-0.486935	0.433357	-0.445062
-0.497704	0.424278	0.511961	0.499216	0.426544	-0.445798	0.405692	-0.493796	-0.480631	-0.424093	-0.489236	-0.392122	0.501245	-0.417272	-0.489281	0.495549	-0.417874	-0.513065	0.387322	-0.477561	0.40938	-0.453858	0.497597	-0.461324	-0.423062	0.429235	-0.409382	0.40933	0.437549	-0.433807	0.509521	-0.438872
-0.439345	0.53654	0.404359	0.472079	0.422472	-0.443449	0.519685	-0.472182	-0.387842	-0.470389	-0.449881	-0.52999	0.462637	-0.404281	-0.467872	0.334637	-0.477197	-0.436443	0.461091	-0.485531	0.253068	-0.479532	0.529719	-0.450068	-0.522262	0.448398	-0.393696	0.396634	0.439216	-0.40779	0.433134	-0.391762
-0.48473	0.466498	0.48535	0.444429	0.528498	-0.476221	0.484781	-0.426901	-0.450646	-0.433026	-0.443476	-0.39898	0.54293	-0.406782	-0.45927	0.379147	-0.521262	-0.375161	0.486625	-0.450627	0.458098	-0.459326	0.470488	-0.451995	-0.447042	0.351348	-0.474274	0.468596	0.444088	-0.437318	0.432751	-0.457698
-0.433628	0.468744	0.500701	0.409964	0.505768	-0.440947	0.450045	-0.520717	-0.407456	-0.438358	-0.437253	-0.465967	0.521849	-0.443262	-0.397918	0.299627	-0.510135	-0.469344	0.462185	-0.518016	0.458106	-0.482857	0.477394	-0.381676	-0.529716	0.404583	-0.449026	0.436639	0.535147	-0.330266	0.482709	-0.522107
-0.511705	0.297158	0.395177	0.524842	0.519253	-0.533506	0.409252	-0.4074	-0.330553	-0.439155	-0.526558	-0.406391	0.406053	-0.412311	-0.530744	0.418076	-0.396854	-0.503344	0.503725	-0.472529	0.484434	-0.541422	0.420669	-0.349397	-0.34224	0.190874	-0.510934	0.449517	0.387653	-0.256062	0.472722	-0.441732
-0.53112	0.447535	0.431861	0.456747	0.448346	-0.420636	0.49467	-0.522899	-0.445644	-0.464832	-0.485324	-0.532813	0.450089	-0.483899	-0.491236	0.364941	-0.495933	-0.444696	0.525279	-0.530668	0.35889	-0.521825	0.431719	-0.436944	-0.423596	0.495431	-0.422975	0.544593	0.409461	-0.457309	0.467797	-0.47841
-0.436527	0.481746	0.480779	0.425955	0.464197	-0.520026	0.556297	-0.492003	-0.548099	-0.537433	-0.484284	-0.477247	0.396997	-0.430669	-0.476307	0.362426	-0.522644	-0.40115	0.481675	-0.43161	0.435047	-0.465851	0.505768	-0.436771	-0.448584	0.453458	-0.540859	0.425713	0.491365	-0.377409	0.489812	-0.374381
-0.467928	0.529502	0.522762	0.459235	0.476176	-0.449633	0.541926	-0.474264	-0.486252	-0.42847	-0.442292	-0.432983	0.428431	-0.443446	-0.482624	0.34523	-0.504163	-0.439211	0.528206	-0.416832	0.486446	-0.453233	0.528697	-0.447561	-0.423499	0.486418	-0.416958	0.495914	0.458086	-0.347369	0.461319	-0.415909
-0.405488	0.527548	0.516859	0.461658	0.478555	-0.426641	0.485927	-0.387352	-0.427315	-0.444014	-0.513687	-0.515625	0.464777	-0.389061	-0.342935	0.378891	-0.424747	-0.44247	0.541426	-0.445926	0.396588	-0.423606	0.465957	-0.545281	-0.495342	0.414712	-0.50937	0.470166	0.483043	-0.430914	0.440832	-0.544263
-0.478519	0.46224	0.403483	0.490134	0.468598	-0.343356	0.484599	-0.397222	-0.512603	-0.45575	-0.419995	-0.510556	0.526803	-0.449087	-0.524917	0.318612	-0.447085	-0.51164	0.47263	-0.450955	0.326469	-0.432589	0.457876	-0.433744	-0.467418	0.409042	-0.447666	0.440534	0.484479	-0.454311	0.428403	-0.394935
-0.42296	0.448628	0.528432	0.548985	0.440307	-0.436849	0.449345	-0.449939	-0.463909	-0.414549	-0.424104	-0.458752	0.457841	-0.516176	-0.425859	0.477173	-0.509309	-0.445782	0.457811	-0.470247	0.505283	-0.45422	0.511987	-0.392551	-0.459617	0.346479	-0.429027	0.509809	0.459604	-0.481179	0.463316	-0.466002
-0.456479	0.504612	0.466301	0.526749	0.410548	-0.517484	0.535784	-0.433461	-0.503844	-0.478049	-0.476411	-0.455802	0.492597	-0.411254	-0.456906	0.324844	-0.443185	-0.512765	0.535208	-0.479051	0.294205	-0.476334	0.409309	-0.412896	-0.455683	0.384006	-0.487556	0.499588	0.512668	-0.524949	0.415702	-0.545482
-0.454424	0.491754	0.365903	0.506357	0.470492	-0.462572	0.341925	-0.480756	-0.447819	-0.411096	-0.458907	-0.416417	0.37884	-0.411782	-0.426833	0.418783	-0.369703	-0.437657	0.435778	-0.47555	0.372251	-0.499285	0.511983	-0.434277	-0.375453	0.331197	-0.447761	0.455364	0.497687	-0.496972	0.496508	-0.48419
-0.336304	0.346255	0.383889	0.487023	0.459121	-0.468846	0.362528	-0.370952	-0.367204	-0.380586	-0.413424	-0.485758	0.50557	-0.42033	-0.481086	0.401132	-0.450935	-0.475556	0.438711	-0.409638	0.500443	-0.367222	0.384026	-0.349631	-0.475579	0.525866	-0.452088	0.455057	0.434321	-0.394685	0.333068	-0.418842
-0.389208	0.379168	0.468633	0.400272	0.379155	-0.376314	0.412937	-0.49874	-0.501925	-0.387943	-0.506482	-0.463107	0.441454	-0.391377	-0.403201	0.458329	-0.383468	-0.422537	0.448957	-0.493713	0.534367	-0.470144	0.486453	-0.371598	-0.459647	0.474241	-0.480015	0.437331	0.46641	-0.351874	0.446457	-0.519763
-0.526179	0.447581	0.420836	0.511566	0.515312	-0.490672	0.407382	-0.428127	-0.416301	-0.387286	-0.388171	-0.439852	0.478116	-0.425864	-0.517029	0.478559	-0.411337	-0.524998	0.437141	-0.392012	0.45649	-0.404607	0.385595	-0.490661	-0.443185	0.47026	-0.489755	0.513563	0.397274	-0.539197	0.443842	-0.529265
-0.428356	0.461239	0.485281	0.427446	0.507385	-0.426744	0.446675	-0.373912	-0.375423	-0.435768	-0.479828	-0.442921	0.509004	-0.494374	-0.46825	0.459538	-0.485773	-0.435804	0.475896	-0.392311	0.557852	-0.438192	0.476549	-0.429098	-0.481966	0.43902	-0.417919	0.424849	0.416834	-0.488461	0.478535	-0.415078
-0.438836	0.465672	0.439263	0.490681	0.431463	-0.451504	0.398776	-0.426606	-0.42106	-0.474763	-0.544535	-0.54695	0.541335	-0.490046	-0.43799	0.336557	-0.528419	-0.469609	0.501401	-0.400816	0.295478	-0.414249	0.422743	-0.530376	-0.52918	0.29425	-0.425648	0.443616	0.455157	-0.552044	0.436547	-0.368749
-0.466891	0.466372	0.418302	0.479481	0.530235	-0.511435	0.407241	-0.543713	-0.42862	-0.470669	-0.443913	-0.468916	0.455829	-0.488958	-0.443244	0.382701	-0.469422	-0.471865	0.496118	-0.448957	0.474012	-0.510315	0.43405	-0.522817	-0.511412	0.504682	-0.463457	0.466911	0.445351	-0.444224	0.48915	-0.420284
-0.461468	0.50773	0.469861	0.476543	0.461138	-0.431914	0.463458	-0.478349	-0.412177	-0.496394	-0.50031	-0.55299	0.493091	-0.443679	-0.438808	0.435406	-0.526551	-0.48505	0.553526	-0.528884	0.284141	-0.472249	0.445418	-0.492904	-0.376703	0.407496	-0.432548	0.512267	0.533302	-0.418421	0.414815	-0.378344
-0.459711	0.512188	0.484202	0.48212	0.461836	-0.449793	0.509215	-0.376917	-0.459917	-0.466961	-0.499789	-0.441818	0.443134	-0.384566	-0.37398	0.44383	-0.420606	-0.490403	0.429118	-0.337982	0.264782	-0.45716	0.359924	-0.537119	-0.443127	0.583362	-0.455145	0.49085	0.381882	-0.522457	0.36092	-0.466704
-0.50096	0.408606	0.399796	0.466163	0.445882	-0.452588	0.374262	-0.487393	-0.429332	-0.432348	-0.497304	-0.459538	0.500801	-0.435273	-0.41477	0.440418	-0.453122	-0.465468	0.427828	-0.471796	0.385794	-0.487813	0.461108	-0.407186	-0.485623	0.49032	-0.514948	0.399454	0.472336	-0.406896	0.422679	-0.482329
-0.430027	0.511829	0.50019	0.524983	0.439138	-0.369581	0.490274	-0.470305	-0.460922	-0.527489	-0.511779	-0.452633	0.486562	-0.404163	-0.429197	0.403916	-0.405751	-0.46043	0.538689	-0.424043	0.434917	-0.434078	0.516544	-0.501461	-0.481745	0.363966	-0.408191	0.465448	0.480995	-0.457504	0.499954	-0.509733
-0.322331	0.328798	0.41656	0.423484	0.335772	-0.367458	0.136045	-0.310443	-0.364977	-0.409555	-0.32738	-0.413057	0.412357	-0.383086	-0.510321	0.494764	-0.358885	-0.391869	0.263214	-0.244619	0.56635	-0.409997	0.351185	-0.438655	-0.350685	0.419717	-0.380795	0.42952	0.308612	-0.327984	0.365654	-0.46992
-0.474574	0.477598	0.366468	0.363221	0.451428	-0.382034	0.425201	-0.36173	-0.409066	-0.296011	-0.429873	-0.347671	0.366442	-0.356973	-0.331732	0.508728	-0.465432	-0.327934	0.396735	-0.46149	0.352736	-0.443977	0.333773	-0.453074	-0.439488	0.529652	-0.475371	0.335618	0.474127	-0.205411	0.50342	-0.456717
-0.488029	0.417959	0.406292	0.472904	0.490614	-0.416306	0.448648	-0.432811	-0.534837	-0.479779	-0.458288	-0.424931	0.4799	-0.433349	-0.485454	0.380393	-0.518784	-0.545345	0.507923	-0.413143	0.28528	-0.494807	0.360455	-0.468154	-0.472444	0.377498	-0.499649	0.510546	0.520897	-0.387553	0.417888	-0.478776
-0.432367	0.529076	0.345871	0.515342	0.482394	-0.472357	0.329299	-0.492193	-0.426508	-0.484423	-0.519372	-0.456048	0.425642	-0.436306	-0.477807	0.458949	-0.511963	-0.488322	0.424885	-0.390985	0.498622	-0.512242	0.471209	-0.449936	-0.483428	0.501822	-0.381188	0.402983	0.403274	-0.486869	0.403794	-0.421962
-0.411676	0.437987	0.447772	0.394518	0.523897	-0.517594	0.469885	-0.360514	-0.446642	-0.42493	-0.494289	-0.387082	0.34695	-0.385597	-0.462522	0.535477	-0.428644	-0.293758	0.487244	-0.413736	0.340749	-0.45776	0.481567	-0.523357	-0.339119	0.480802	-0.520466	0.455354	0.477336	-0.449937	0.370281	-0.413554
-0.528639	0.537594	0.460311	0.488156	0.428624	-0.410667	0.502838	-0.503955	-0.48994	-0.529393	-0.506122	-0.457218	0.391401	-0.50847	-0.42928	0.304801	-0.453119	-0.431317	0.418833	-0.453837	0.354418	-0.449343	0.494596	-0.432748	-0.500317	0.422393	-0.441392	0.514756	0.412997	-0.550305	0.480096	-0.413335
-0.462702	0.512893	0.413527	0.460497	0.506061	-0.481252	0.429988	-0.413003	-0.497264	-0.395571	-0.474877	-0.493329	0.477425	-0.531072	-0.374817	0.374474	-0.432376	-0.488682	0.535695	-0.415026	0.450502	-0.476127	0.452842	-0.472836	-0.464725	0.445628	-0.51559	0.427723	0.464288	-0.425044	0.434216	-0.498989
-0.382714	0.455129	0.394266	0.451603	0.423711	-0.427018	0.409931	-0.383399	-0.418988	-0.448027	-0.377642	-0.397542	0.481204	-0.452285	-0.384273	0.55206	-0.356966	-0.514979	0.468675	-0.464644	0.417637	-0.378752	0.450366	-0.455843	-0.402857	0.547057	-0.426768	0.400451	0.484566	-0.377779	0.489144	-0.464663
-0.42646	0.498836	0.504132	0.524294	0.486772	-0.397898	0.381872	-0.466664	-0.46457	-0.414388	-0.49735	-0.516548	0.543306	-0.467334	-0.435774	0.483837	-0.464706	-0.407166	0.498103	-0.415542	0.458809	-0.372647	0.457609	-0.409291	-0.502098	0.294871	-0.506151	0.406679	0.500481	-0.416327	0.427057	-0.477816
-0.448282	0.349723	0.396563	0.516047	0.502848	-0.391811	0.436921	-0.366637	-0.40042	-0.457692	-0.419109	-0.382975	0.474148	-0.391932	-0.413317	0.500485	-0.485129	-0.52485	0.438895	-0.432913	0.532359	-0.526914	0.504822	-0.402543	-0.338031	0.434713	-0.514278	0.422795	0.403084	-0.527051	0.471853	-0.495501
-0.509159	0.518642	0.478518	0.506229	0.44338	-0.397522	0.532957	-0.545497	-0.483678	-0.473353	-0.450574	-0.491895	0.477915	-0.414666	-0.455587	0.482969	-0.409671	-0.446433	0.50503	-0.436221	0.364456	-0.530358	0.423151	-0.468609	-0.405213	0.422297	-0.465706	0.449576	0.531345	-0.409808	0.448117	-0.550168
-0.365856	0.490672	0.513868	0.355047	0.378831	-0.450083	0.464524	-0.424785	-0.540029	-0.436771	-0.547824	-0.381272	0.50193	-0.520087	-0.509051	0.366895	-0.460933	-0.36558	0.44583	-0.416704	0.411096	-0.486011	0.45893	-0.379466	-0.424172	0.420364	-0.50627	0.436367	0.447664	-0.440926	0.438535	-0.41101
-0.464637	0.473349	0.500462	0.515604	0.415783	-0.540827	0.412803	-0.382952	-0.439737	-0.496389	-0.459412	-0.379163	0.549873	-0.525952	-0.431791	0.473427	-0.447535	-0.388664	0.486279	-0.418927	0.334203	-0.497016	0.445207	-0.446004	-0.415373	0.341905	-0.445059	0.418962	0.465691	-0.531789	0.441653	-0.439521
-0.483701	0.479259	0.387849	0.389708	0.417318	-0.396978	0.460741	-0.385283	-0.401013	-0.471825	-0.488961	-0.500132	0.377735	-0.433852	-0.42256	0.487333	-0.389612	-0.410303	0.329997	-0.537225	0.431316	-0.480938	0.416797	-0.492206	-0.50036	0.384539	-0.472848	0.497314	0.437158	-0.369366	0.383536	-0.499307
-0.522987	0.496984	0.50798	0.508847	0.490667	-0.447689	0.481379	-0.515391	-0.449357	-0.48759	-0.524951	-0.502274	0.452695	-0.488133	-0.459949	0.335187	-0.44658	-0.46987	0.448276	-0.501699	0.376738	-0.503125	0.420217	-0.502016	-0.525741	0.569372	-0.437986	0.438669	0.482544	-0.428705	0.452766	-0.460564
-0.43657	0.492542	0.405745	0.492339	0.48169	-0.414656	0.395501	-0.429468	-0.442122	-0.408897	-0.495079	-0.459935	0.448029	-0.382675	-0.438278	0.428224	-0.480885	-0.473867	0.327232	-0.457908	0.382973	-0.427093	0.378242	-0.421723	-0.43186	0.39418	-0.400997	0.497609	0.475038	-0.441991	0.444455	-0.480474
-0.521969	0.399612	0.392966	0.486124	0.487253	-0.393731	0.491237	-0.459499	-0.470187	-0.463126	-0.48398	-0.457794	0.388151	-0.411989	-0.459557	0.402182	-0.476555	-0.430437	0.504626	-0.48281	0.440348	-0.377536	0.411039	-0.456736	-0.481647	0.540717	-0.404596	0.414155	0.395017	-0.353354	0.405693	-0.399602
-0.442994	0.475383	0.414797	0.546296	0.413257	-0.481543	0.454392	-0.490117	-0.446857	-0.466161	-0.519724	-0.504104	0.374029	-0.449314	-0.438055	0.449727	-0.432265	-0.397908	0.472297	-0.46637	0.405587	-0.451272	0.428316	-0.460268	-0.487784	0.248734	-0.447667	0.504727	0.453526	-0.500788	0.48789	-0.423478
-0.502662	0.445403	0.435593	0.46064	0.438139	-0.480822	0.476842	-0.443683	-0.344626	-0.348519	-0.420896	-0.472909	0.512389	-0.426562	-0.460152	0.246906	-0.460324	-0.458133	0.553684	-0.461523	0.471846	-0.424911	0.366364	-0.394738	-0.418953	0.480756	-0.469424	0.479503	0.47901	-0.483998	0.42457	-0.36378
-0.40439	0.439409	0.491706	0.332804	0.356393	-0.345681	0.321671	-0.352835	-0.353857	-0.347914	-0.303245	-0.434685	0.420932	-0.346497	-0.40565	0.416779	-0.429911	-0.421046	0.494096	-0.469806	0.550435	-0.455027	0.378446	-0.314832	-0.475286	0.475786	-0.393071	0.479168	0.484636	-0.274081	0.382111	-0.414041
-0.459651	0.511587	0.518017	0.435157	0.443378	-0.450172	0.317251	-0.456874	-0.446818	-0.481502	-0.38161	-0.544534	0.377095	-0.483429	-0.454514	0.499775	-0.463765	-0.450097	0.545257	-0.478319	0.488661	-0.448823	0.482272	-0.46278	-0.55526	0.334769	-0.456479	0.437617	0.547102	-0.295027	0.513159	-0.512333
-0.470593	0.488218	0.494874	0.40713	0.497709	-0.395493	0.39695	-0.391586	-0.423103	-0.471146	-0.395226	-0.410264	0.510658	-0.51406	-0.469776	0.411201	-0.454052	-0.466321	0.51455	-0.49724	0.451368	-0.425446	0.508047	-0.524466	-0.452212	0.345727	-0.439891	0.49217	0.387742	-0.311467	0.427078	-0.52368
-0.507046	0.492459	0.354329	0.389806	0.507344	-0.45343	0.442132	-0.339782	-0.37589	-0.405596	-0.446243	-0.511632	0.377397	-0.387915	-0.459241	0.455372	-0.468507	-0.514261	0.439291	-0.339446	0.316791	-0.45997	0.423341	-0.531158	-0.455269	0.599081	-0.43926	0.455646	0.397756	-0.544092	0.439139	-0.4895
-0.367901	0.355793	0.449987	0.365287	0.520386	-0.41334	0.28876	-0.503692	-0.423281	-0.377495	-0.526154	-0.420488	0.225938	-0.419647	-0.595598	0.467303	-0.325152	-0.453115	0.418343	-0.311384	0.505958	-0.361321	0.468262	-0.289234	-0.365552	0.591462	-0.475381	0.504822	0.490882	-0.4452	0.381652	-0.408598
-0.431639	0.460451	0.531976	0.433415	0.514124	-0.421367	0.515155	-0.465632	-0.458941	-0.484149	-0.505716	-0.501256	0.46997	-0.436161	-0.489435	0.449103	-0.438801	-0.390411	0.472094	-0.544804	0.471499	-0.472952	0.47762	-0.343001	-0.408296	0.248527	-0.433253	0.432419	0.398204	-0.415571	0.459217	-0.466526
-0.478832	0.498869	0.425155	0.475306	0.372857	-0.351	0.459967	-0.444136	-0.539267	-0.465044	-0.420222	-0.473724	0.51022	-0.522374	-0.457833	0.280055	-0.486961	-0.350413	0.46316	-0.515664	0.484351	-0.427167	0.53468	-0.427336	-0.500273	0.404112	-0.400972	0.45511	0.426462	-0.508644	0.536587	-0.466285
-0.413232	0.486316	0.448682	0.443827	0.400838	-0.378252	0.561418	-0.539699	-0.479965	-0.473817	-0.362412	-0.501488	0.476695	-0.434932	-0.432397	0.454272	-0.532703	-0.391714	0.522278	-0.447073	0.516845	-0.413635	0.400373	-0.483555	-0.522859	0.425233	-0.430582	0.460833	0.434285	-0.548553	0.429527	-0.414948
-0.476768	0.374433	0.304776	0.494188	0.446067	-0.417536	-0.154569	-0.404107	-0.408674	-0.404122	-0.442737	-0.37787	0.191432	-0.488619	-0.514285	0.608183	-0.500085	-0.216366	0.335678	-0.308717	0.455319	-0.429272	0.492587	-0.385882	-0.400118	0.618798	-0.434649	0.405986	0.199847	-0.524644	0.441044	-0.337656
-0.493866	0.383123	0.46872	0.489028	0.463106	-0.531767	0.302139	-0.484191	-0.35532	-0.504213	-0.376796	-0.393073	0.389097	-0.333885	-0.353617	0.431372	-0.414412	-0.507669	0.413843	-0.360902	0.427313	-0.426423	0.430653	-0.46183	-0.514893	0.501355	-0.384915	0.422422	0.388628	-0.375221	0.326177	-0.373923
-0.422553	0.462742	0.40245	0.447527	0.452296	-0.492992	0.51254	-0.478748	-0.449074	-0.510832	-0.489158	-0.520574	0.403194	-0.421519	-0.370431	0.443675	-0.45296	-0.480677	0.526435	-0.472088	0.461241	-0.453004	0.373923	-0.527954	-0.518824	0.537286	-0.4504	0.478258	0.514762	-0.491677	0.416663	-0.40136
-0.376845	0.463294	0.384619	0.446413	0.531899	-0.441364	0.477287	-0.411818	-0.481679	-0.396323	-0.376731	-0.466177	0.369792	-0.411976	-0.451306	0.592686	-0.413359	-0.464793	0.550514	-0.479335	0.401831	-0.448148	0.54048	-0.548661	-0.520706	0.579528	-0.419218	0.403744	0.401957	-0.398397	0.392441	-0.478407
-0.415114	0.433032	0.412227	0.537492	0.483481	-0.528021	0.486918	-0.436703	-0.479372	-0.488717	-0.516321	-0.421713	0.505999	-0.454268	-0.442533	0.338407	-0.54729	-0.35998	0.469161	-0.529691	0.401591	-0.510504	0.410188	-0.406092	-0.421695	0.381729	-0.414066	0.468149	0.487051	-0.487242	0.471501	-0.391895
-0.510398	0.410835	0.462777	0.50189	0.417528	-0.458882	0.43845	-0.495516	-0.425637	-0.413114	-0.467573	-0.520079	0.525801	-0.415246	-0.504444	0.44824	-0.442735	-0.375341	0.406931	-0.381323	0.407751	-0.465635	0.427493	-0.369026	-0.399074	0.429021	-0.460401	0.412423	0.494862	-0.436098	0.469304	-0.392299
-0.379767	0.462045	0.475019	0.527446	0.418665	-0.490582	0.402196	-0.487186	-0.440791	-0.476266	-0.494604	-0.496766	0.443472	-0.362846	-0.45523	0.43306	-0.476531	-0.398823	0.489366	-0.503312	0.443016	-0.367999	0.409621	-0.47382	-0.427884	0.39166	-0.497039	0.473984	0.464695	-0.424224	0.512497	-0.424505
-0.469859	0.465063	0.485865	0.452469	0.507455	-0.472946	0.401428	-0.545671	-0.48129	-0.379708	-0.471116	-0.451766	0.493179	-0.422165	-0.444382	0.486966	-0.48717	-0.416149	0.438121	-0.401092	0.319088	-0.481425	0.50824	-0.52016	-0.436752	0.462319	-0.5084	0.52861	0.433169	-0.47544	0.48649	-0.455963
-0.497025	0.440526	0.479199	0.379906	0.396558	-0.403174	0.535579	-0.454702	-0.351191	-0.462884	-0.502246	-0.36723	0.428889	-0.40036	-0.416454	0.391433	-0.512308	-0.542081	0.473804	-0.425439	0.424809	-0.48555	0.436905	-0.501351	-0.484277	0.369572	-0.475667	0.462549	0.455343	-0.43962	0.383758	-0.456108
-0.466743	0.524107	0.482224	0.329984	0.367829	-0.467669	0.506955	-0.442247	-0.404376	-0.512901	-0.493043	-0.366022	0.350055	-0.450554	-0.46853	0.262979	-0.525798	-0.400509	0.53118	-0.536908	0.380564	-0.553972	0.512019	-0.476826	-0.44223	0.491146	-0.469773	0.428094	0.430899	-0.450135	0.425952	-0.447984
-0.426695	0.483634	0.515463	0.505307	0.464756	-0.540188	0.518757	-0.346044	-0.494689	-0.370183	-0.431012	-0.479586	0.450238	-0.463166	-0.441957	0.497473	-0.526178	-0.485689	0.383085	-0.476202	0.551385	-0.473856	0.367212	-0.392568	-0.444509	0.525224	-0.446375	0.400418	0.425776	-0.454425	0.369969	-0.473132
-0.439952	0.40722	0.413152	0.486088	0.489917	-0.542419	0.472308	-0.485101	-0.408737	-0.491857	-0.468978	-0.397441	0.545054	-0.42384	-0.466677	0.450472	-0.479227	-0.392068	0.514987	-0.398017	0.34095	-0.506357	0.441659	-0.432846	-0.537923	0.387631	-0.516986	0.484659	0.447987	-0.458375	0.362595	-0.446253
-0.452531	0.417294	0.513335	0.426055	0.528143	-0.461982	0.446335	-0.430995	-0.526572	-0.402138	-0.381497	-0.469098	0.475633	-0.50963	-0.476384	0.400549	-0.443339	-0.45068	0.484329	-0.4104	0.538981	-0.373443	0.436422	-0.409187	-0.483443	0.353736	-0.418142	0.441662	0.510129	-0.395425	0.419426	-0.488377
-0.415572	0.452217	0.418131	0.404859	0.514822	-0.488329	0.459186	-0.449226	-0.393826	-0.48383	-0.45006	-0.472024	0.412067	-0.383918	-0.382344	0.360893	-0.454014	-0.416302	0.336928	-0.521961	0.492232	-0.402802	0.524126	-0.430505	-0.423274	0.395304	-0.414217	0.387829	0.460236	-0.413259	0.455838	-0.436947
-0.493012	0.418903	0.359914	0.445157	0.417392	-0.415718	0.439026	-0.509637	-0.504683	-0.510627	-0.462679	-0.455323	0.515803	-0.398205	-0.442712	0.449359	-0.377503	-0.410298	0.401946	-0.450185	0.435217	-0.457954	0.365074	-0.438796	-0.451823	0.597204	-0.483926	0.444637	0.456853	-0.489662	0.384771	-0.425313
-0.408003	0.48397	0.430797	0.444763	0.468861	-0.377345	0.210639	-0.382901	-0.406714	-0.450152	-0.518761	-0.340668	0.533379	-0.431112	-0.236711	0.630714	-0.381466	-0.478382	0.487706	-0.539751	0.254061	-0.567722	0.500355	-0.404511	-0.405241	0.44438	-0.429682	0.419216	0.475679	-0.541803	0.56801	-0.467617
-0.470849	0.372153	0.505714	0.505699	0.48365	-0.447732	0.373536	-0.438665	-0.489116	-0.473613	-0.392364	-0.457032	0.389859	-0.480074	-0.410275	0.556722	-0.437632	-0.436935	0.453114	-0.429043	0.292689	-0.471288	0.453161	-0.512984	-0.462144	0.53316	-0.538399	0.508143	0.413887	-0.272091	0.4106	-0.528057
-0.487562	0.529594	0.478106	0.53752	0.514256	-0.47133	0.449458	-0.486584	-0.483076	-0.503688	-0.480864	-0.534481	0.41454	-0.478538	-0.507931	0.54824	-0.453053	-0.495492	0.519449	-0.45674	0.404866	-0.502512	0.472261	-0.508167	-0.359005	0.342474	-0.46336	0.537408	0.474536	-0.527084	0.424577	-0.417375
-0.490241	0.45321	0.463152	0.48114	0.451858	-0.374279	0.564732	-0.439192	-0.420824	-0.410985	-0.455337	-0.416698	0.425123	-0.376491	-0.320121	0.292127	-0.434087	-0.355918	0.407558	-0.495695	0.585915	-0.459385	0.393835	-0.373088	-0.442016	0.254225	-0.419395	0.365034	0.437442	-0.522792	0.487655	-0.470564
-0.416953	0.381592	0.410248	0.417054	0.505759	-0.359021	0.344892	-0.53728	-0.494209	-0.501496	-0.46748	-0.461408	0.460813	-0.475173	-0.430987	0.384281	-0.434266	-0.502462	0.425564	-0.448622	0.401543	-0.505404	0.468672	-0.457037	-0.417961	0.389847	-0.405547	0.505701	0.455334	-0.514513	0.440313	-0.480333
-0.504064	0.409923	0.450986	0.477628	0.455721	-0.422076	0.352488	-0.363212	-0.503469	-0.513823	-0.472213	-0.485996	0.503438	-0.385335	-0.499579	0.379659	-0.492874	-0.491724	0.432739	-0.443673	0.552355	-0.376453	0.494813	-0.568562	-0.370764	0.228684	-0.412197	0.436825	0.498723	-0.560436	0.415712	-0.49377
-0.430191	0.397593	0.470091	0.403529	0.476707	-0.37066	0.400541	-0.412062	-0.49512	-0.415858	-0.446926	-0.421019	0.32746	-0.391653	-0.525212	0.478009	-0.397658	-0.505384	0.498336	-0.481458	0.348717	-0.38227	0.409076	-0.336067	-0.467662	0.488778	-0.449774	0.487108	0.48706	-0.51513	0.456385	-0.39197
-0.467679	0.434243	0.413564	0.356885	0.43865	-0.406238	0.489931	-0.468428	-0.438212	-0.483192	-0.460311	-0.532233	0.547909	-0.377883	-0.436431	0.413566	-0.440039	-0.363366	0.500036	-0.469011	0.519284	-0.493019	0.499877	-0.463147	-0.474744	0.268783	-0.508338	0.403447	0.447357	-0.315054	0.460631	-0.459154
-0.450418	0.410767	0.456395	0.458523	0.463683	-0.470456	0.425796	-0.492394	-0.413377	-0.438437	-0.422018	-0.477447	0.352202	-0.406793	-0.34896	0.392446	-0.44881	-0.444258	0.51047	-0.448001	0.274799	-0.423277	0.411587	-0.332743	-0.396021	0.232198	-0.465323	0.364361	0.432813	-0.290168	0.482503	-0.498623
-0.398896	0.355819	0.44868	0.521835	0.430522	-0.53062	0.446158	-0.517718	-0.449802	-0.406764	-0.501903	-0.439411	0.379775	-0.381001	-0.397948	0.460178	-0.454354	-0.41211	0.406892	-0.43587	0.457528	-0.418779	0.451413	-0.463859	-0.478806	0.42811	-0.390233	0.458213	0.399376	-0.493995	0.510287	-0.499967
-0.509233	0.434923	0.414825	0.37391	0.486252	-0.466526	0.468071	-0.545816	-0.520017	-0.45441	-0.395008	-0.421017	0.54374	-0.410459	-0.417529	0.380983	-0.433427	-0.298212	0.459418	-0.370228	0.485894	-0.432386	0.506742	-0.415266	-0.374453	0.334812	-0.382324	0.521751	0.460168	-0.437936	0.377569	-0.437756
-0.464117	0.508586	0.490663	0.351991	0.508901	-0.330814	0.401483	-0.37464	-0.477123	-0.459544	-0.374173	-0.493586	0.373788	-0.528925	-0.397033	0.402385	-0.398863	-0.427949	0.316343	-0.443344	0.320904	-0.49199	0.432804	-0.495362	-0.491965	0.5798	-0.393375	0.407594	0.456371	-0.451012	0.480101	-0.478552
-0.420075	0.521858	0.53049	0.483194	0.48713	-0.482327	0.46772	-0.46367	-0.502313	-0.408991	-0.441641	-0.46915	0.425214	-0.433449	-0.525832	0.440333	-0.416627	-0.415146	0.445834	-0.475391	0.350326	-0.429382	0.454762	-0.474774	-0.384918	0.426537	-0.407906	0.440588	0.508797	-0.420606	0.480581	-0.399188
-0.537806	0.524181	0.397252	0.529006	0.511714	-0.54166	0.381545	-0.447916	-0.500141	-0.368581	-0.529792	-0.509981	0.484518	-0.501725	-0.544902	0.406832	-0.404273	-0.416141	0.515987	-0.438608	0.438807	-0.48778	0.474846	-0.535053	-0.378053	0.352908	-0.488708	0.395343	0.502809	-0.521505	0.488967	-0.517971
-0.310042	0.455521	0.48346	0.557153	0.377728	-0.465621	0.584544	-0.396916	-0.3655	-0.403218	-0.41937	-0.554624	0.377606	-0.471339	-0.373863	0.419841	-0.383166	-0.44176	0.4302	-0.545683	0.5131	-0.404981	0.43943	-0.579163	-0.334473	0.39172	-0.549666	0.474273	0.443166	-0.18193	0.447811	-0.490359
-0.365198	0.348358	0.36355	0.368434	0.446501	-0.486304	0.461793	-0.428587	-0.494881	-0.440204	-0.48692	-0.445456	0.535635	-0.431716	-0.547763	0.361333	-0.462511	-0.463481	0.435553	-0.445089	0.383674	-0.474004	0.321462	-0.496226	-0.499594	0.614906	-0.389926	0.380952	0.45273	-0.449941	0.47752	-0.359512
-0.509105	0.543075	0.401218	0.477139	0.529501	-0.33293	0.490499	-0.452608	-0.413231	-0.514737	-0.456495	-0.49476	0.51687	-0.435319	-0.503133	0.3884	-0.457131	-0.460762	0.378105	-0.448297	0.262183	-0.431092	0.486217	-0.425893	-0.460752	0.542743	-0.481193	0.421749	0.509019	-0.467581	0.504869	-0.443128
-0.334114	0.39215	0.394525	0.466336	0.51418	-0.326208	0.55896	-0.49399	-0.479782	-0.442089	-0.536478	-0.359327	0.411359	-0.503528	-0.461629	0.511768	-0.448156	-0.384242	0.488191	-0.418418	0.426812	-0.435569	0.449674	-0.35895	-0.452002	0.400909	-0.4276	0.446675	0.302471	-0.551064	0.403059	-0.400314
-0.340811	0.544284	0.489168	0.450984	0.492779	-0.502743	0.436522	-0.513386	-0.419131	-0.481594	-0.395668	-0.498073	0.396162	-0.501024	-0.49719	0.395693	-0.470082	-0.397784	0.46722	-0.382871	0.465708	-0.392122	0.510266	-0.511533	-0.359684	0.608968	-0.459104	0.443144	0.358981	-0.427958	0.500879	-0.524036
-0.375656	0.464282	0.374201	0.190616	0.361846	-0.368668	0.39616	-0.45698	-0.372699	-0.483543	-0.364867	-0.251458	0.462531	-0.22303	-0.36073	0.518668	-0.448708	-0.418187	0.384796	-0.313057	0.49895	-0.440706	0.316394	-0.448251	-0.423509	0.175607	-0.468576	0.438045	0.521103	-0.310323	0.502879	-0.448351
-0.464293	0.456496	0.462949	0.464461	0.433097	-0.398998	0.590946	-0.359376	-0.393916	-0.395462	-0.484831	-0.554366	0.452041	-0.382062	-0.46985	0.405448	-0.473133	-0.455904	0.495109	-0.413355	0.348164	-0.433699	0.46962	-0.361602	-0.491048	0.372782	-0.44355	0.472177	0.519036	-0.44781	0.44923	-0.45136
-0.49726	0.492195	0.508849	0.484884	0.505061	-0.478098	0.506521	-0.515441	-0.456643	-0.452965	-0.49189	-0.524733	0.507809	-0.44275	-0.541649	0.347053	-0.560228	-0.483274	0.481604	-0.470598	0.466984	-0.449193	0.520631	-0.435409	-0.454403	0.571331	-0.509802	0.439842	0.511482	-0.517984	0.470458	-0.489622
-0.452762	0.34597	0.342992	0.48562	0.482255	-0.35999	0.343878	-0.517226	-0.418658	-0.522761	-0.481109	-0.489286	0.436929	-0.465002	-0.343696	0.449174	-0.37816	-0.279556	0.448342	-0.476584	0.364844	-0.420114	0.40475	-0.45953	-0.416293	0.417427	-0.369037	0.455793	0.373881	-0.470652	0.506511	-0.344836
-0.509852	0.474852	0.438623	0.535633	0.465867	-0.30543	0.334565	-0.497693	-0.525891	-0.508408	-0.489447	-0.496954	0.474388	-0.384041	-0.400271	0.526282	-0.48752	-0.448999	0.389824	-0.514335	0.454587	-0.445785	0.458537	-0.519216	-0.486264	0.555238	-0.506563	0.433852	0.490751	-0.283995	0.389873	-0.302983
-0.338674	0.367627	0.289791	0.349394	0.372948	-0.471576	0.457817	-0.446289	-0.460817	-0.36495	-0.397135	-0.482354	0.405778	-0.362232	-0.350443	0.460807	-0.398838	-0.278881	0.291364	-0.419509	0.375447	-0.322989	0.359958	-0.433032	-0.374865	0.404922	-0.428939	0.446237	0.372354	-0.188096	0.433819	-0.440493
-0.431447	0.470551	0.549789	0.445431	0.488109	-0.345535	0.487598	-0.372247	-0.445811	-0.510071	-0.514943	-0.487781	0.515516	-0.425277	-0.432189	0.331759	-0.407082	-0.429479	0.498152	-0.471001	0.417193	-0.441259	0.450942	-0.515349	-0.48464	0.540143	-0.516271	0.416554	0.423663	-0.511202	0.449757	-0.557838
-0.410522	0.517916	0.425418	0.531539	0.478572	-0.556958	0.468331	-0.454306	-0.509363	-0.503574	-0.494675	-0.401913	0.498475	-0.404408	-0.373816	0.442517	-0.520898	-0.470744	0.483844	-0.458957	0.457818	-0.533977	0.421249	-0.437378	-0.440154	0.398212	-0.441547	0.500526	0.460289	-0.312964	0.49549	-0.418257
-0.404929	0.418073	0.495244	0.452841	0.44319	-0.424151	0.424207	-0.386743	-0.447175	-0.407801	-0.41188	-0.461039	0.372949	-0.358108	-0.460659	0.376293	-0.433002	-0.455783	0.51261	-0.449673	0.557636	-0.501938	0.441868	-0.438751	-0.500406	0.354877	-0.432136	0.430483	0.467448	-0.409149	0.466221	-0.498779
-0.39176	0.535108	0.431253	0.453891	0.455765	-0.495541	0.181473	-0.466307	-0.440909	-0.418048	-0.392965	-0.328054	0.349479	-0.363865	-0.50995	0.449429	-0.5255	-0.399336	0.349417	-0.456274	0.41456	-0.409208	0.375008	-0.499857	-0.53388	0.458166	-0.482379	0.433392	0.490529	-0.358268	0.502469	-0.468702
-0.537723	0.522068	0.510083	0.452735	0.487761	-0.404829	0.536032	-0.437302	-0.503313	-0.525231	-0.374646	-0.416665	0.483878	-0.472713	-0.498991	0.35117	-0.525897	-0.392028	0.498674	-0.424237	0.411311	-0.425047	0.399399	-0.490445	-0.464766	0.545139	-0.538334	0.481162	0.54351	-0.380236	0.509635	-0.440074
-0.495372	0.491938	0.391693	0.517461	0.4438	-0.399259	0.483002	-0.538226	-0.509268	-0.399451	-0.493806	-0.409514	0.486565	-0.464581	-0.524501	0.500841	-0.426583	-0.512808	0.411081	-0.469429	0.347721	-0.406682	0.420497	-0.498044	-0.486436	0.498254	-0.428573	0.392269	0.46826	-0.402385	0.447917	-0.526213
-0.466119	0.53878	0.448939	0.430368	0.524762	-0.492894	0.558963	-0.507069	-0.459904	-0.485492	-0.515566	-0.524387	0.406318	-0.465007	-0.465567	0.459725	-0.416292	-0.487273	0.51107	-0.546057	0.505097	-0.493036	0.515201	-0.405042	-0.42899	0.296646	-0.458968	0.405609	0.44043	-0.393741	0.405346	-0.460347
-0.430837	0.513873	0.357259	0.316263	0.528626	-0.554639	0.420544	-0.393014	-0.407017	-0.426017	-0.39985	-0.498866	0.411726	-0.461347	-0.316932	0.429986	-0.525476	-0.353958	0.451892	-0.408069	0.350572	-0.307083	0.409795	-0.463629	-0.38799	0.256547	-0.369418	0.491272	0.406399	-0.406146	0.469628	-0.374863
-0.487122	0.55893	0.420599	0.472388	0.448695	-0.389301	0.489778	-0.434433	-0.518523	-0.415545	-0.514986	-0.51335	0.434315	-0.414708	-0.488848	0.450835	-0.502661	-0.475606	0.408461	-0.48533	0.359902	-0.484194	0.442463	-0.497953	-0.499951	0.492192	-0.460598	0.410006	0.447771	-0.429263	0.503335	-0.442677
-0.464415	0.442017	0.498374	0.459599	0.376377	-0.534522	0.458869	-0.489486	-0.424592	-0.481204	-0.435771	-0.3797	0.473709	-0.387571	-0.466952	0.335884	-0.471816	-0.415252	0.440273	-0.466488	0.545851	-0.435734	0.421949	-0.377192	-0.531536	0.447499	-0.431457	0.483931	0.41285	-0.458388	0.47244	-0.456622
-0.509132	0.32655	0.460566	0.464133	0.449261	-0.552699	0.476164	-0.405592	-0.499485	-0.483973	-0.473181	-0.543022	0.303252	-0.53316	-0.415023	0.298671	-0.392846	-0.410059	0.388553	-0.553799	0.273193	-0.502537	0.504142	-0.336582	-0.449006	0.549885	-0.484054	0.404541	0.463729	-0.41565	0.570417	-0.502703
-0.471161	0.384604	0.481983	0.416003	0.52255	-0.50204	0.470218	-0.513038	-0.480345	-0.496178	-0.455673	-0.420191	0.508971	-0.476421	-0.366737	0.527173	-0.422013	-0.475354	0.437901	-0.433681	0.502646	-0.473829	0.482321	-0.43059	-0.491615	0.414015	-0.445143	0.523116	0.522817	-0.531974	0.421144	-0.477031
-0.427788	0.459989	0.50214	0.418864	0.51337	-0.48109	0.490963	-0.402514	-0.493725	-0.420826	-0.505242	-0.439826	0.424407	-0.38613	-0.418886	0.377248	-0.492285	-0.434156	0.421666	-0.490663	0.427092	-0.385698	0.470082	-0.506321	-0.516057	0.496745	-0.416591	0.417453	0.448323	-0.33912	0.416598	-0.480729
-0.458518	0.577354	0.542348	0.447018	0.464668	-0.549561	0.523566	-0.521682	-0.498119	-0.486096	-0.548122	-0.560915	0.512082	-0.519288	-0.432072	0.275122	-0.500379	-0.4088	0.56118	-0.461672	0.402587	-0.495178	0.471949	-0.455668	-0.400675	0.311681	-0.527892	0.489205	0.493914	-0.449569	0.429789	-0.525826
-0.396383	0.406659	0.459536	0.519157	0.513516	-0.505309	0.539133	-0.374655	-0.438489	-0.335188	-0.453676	-0.466296	0.415847	-0.379608	-0.410381	0.404571	-0.431308	-0.547642	0.465989	-0.370388	0.366382	-0.475612	0.531029	-0.427552	-0.405755	0.566348	-0.512381	0.405099	0.530352	-0.511944	0.403164	-0.368353
-0.430804	0.420977	0.5069	0.457112	0.511346	-0.527035	0.553651	-0.471232	-0.544102	-0.398976	-0.546695	-0.499456	0.414205	-0.4938	-0.524346	0.330366	-0.499844	-0.505735	0.462136	-0.405243	0.558423	-0.448127	0.384327	-0.449992	-0.437294	0.483947	-0.53196	0.414051	0.423503	-0.550982	0.454872	-0.4868
-0.412075	0.493157	0.46153	0.49859	0.517531	-0.457499	0.542974	-0.501871	-0.543841	-0.521063	-0.530048	-0.461835	0.485046	-0.45974	-0.533538	0.391096	-0.490604	-0.531119	0.537866	-0.442725	0.329574	-0.513366	0.529355	-0.45701	-0.402775	0.47977	-0.456662	0.494796	0.515836	-0.444095	0.478555	-0.497471
-0.445696	0.31179	0.361958	0.332475	0.436039	-0.44341	0.369001	-0.460939	-0.347731	-0.386162	-0.400664	-0.363077	0.32157	-0.358255	-0.352874	0.350973	-0.45761	-0.304091	0.25062	-0.373	0.349935	-0.393049	0.389199	-0.345128	-0.390015	0.44956	-0.357222	0.400628	0.411267	-0.295944	0.422177	-0.361418
-0.449911	0.45003	0.465699	0.45565	0.42647	-0.357842	0.401251	-0.548018	-0.428368	-0.470182	-0.422574	-0.429645	0.476251	-0.535526	-0.497564	0.321952	-0.506085	-0.508789	0.422959	-0.488027	0.4798	-0.450533	0.433939	-0.443519	-0.453464	0.484997	-0.437408	0.425769	0.471659	-0.430056	0.422063	-0.497984
-0.499525	0.421272	0.511928	0.462174	0.457575	-0.416635	0.473454	-0.473065	-0.523225	-0.432391	-0.484946	-0.437469	0.382557	-0.554258	-0.434728	0.47037	-0.435253	-0.473406	0.548684	-0.474499	0.348104	-0.481186	0.474543	-0.417113	-0.409505	0.436097	-0.451807	0.561278	0.407179	-0.473588	0.431574	-0.527121
-0.462364	0.448333	0.433922	0.466049	0.461046	-0.47295	0.552813	-0.505139	-0.489401	-0.509471	-0.452793	-0.458085	0.419478	-0.517243	-0.51939	0.436558	-0.445947	-0.497693	0.429925	-0.43218	0.376186	-0.450885	0.503278	-0.480398	-0.441596	0.328793	-0.46693	0.43573	0.435567	-0.389297	0.485628	-0.429447
-0.486719	0.55502	0.420273	0.518873	0.447308	-0.433011	0.526789	-0.427226	-0.412752	-0.497182	-0.498741	-0.429124	0.517163	-0.421048	-0.514515	0.357221	-0.396768	-0.459755	0.391452	-0.463325	0.428485	-0.398118	0.484914	-0.404153	-0.478914	0.603712	-0.456477	0.431736	0.444977	-0.40918	0.52039	-0.489823
-0.499728	0.441954	0.449028	0.47482	0.455254	-0.336775	0.504284	-0.46456	-0.491259	-0.481248	-0.379681	-0.431608	0.465458	-0.421485	-0.422513	0.355812	-0.463099	-0.419066	0.38202	-0.397201	0.35269	-0.536286	0.50595	-0.555096	-0.521954	0.461606	-0.382192	0.489749	0.472496	-0.473558	0.50562	-0.471829
-0.4006	0.541186	0.48486	0.442897	0.406823	-0.490109	0.465408	-0.521295	-0.380328	-0.409837	-0.415888	-0.392163	0.369452	-0.464221	-0.434963	0.393168	-0.391923	-0.421194	0.540405	-0.428549	0.456762	-0.494302	0.456962	-0.424819	-0.312492	0.554862	-0.436411	0.408339	0.439845	-0.329756	0.381465	-0.516561
-0.39148	0.401165	0.422871	0.514581	0.406926	-0.414705	0.481121	-0.492477	-0.50016	-0.444287	-0.528004	-0.403757	0.44699	-0.487166	-0.524253	0.401739	-0.501637	-0.408063	0.354361	-0.450832	0.388332	-0.461046	0.466893	-0.417277	-0.504573	0.413556	-0.51341	0.404328	0.44663	-0.476823	0.421324	-0.365029
-0.386679	0.354746	0.398724	0.469775	0.494933	-0.456548	0.206325	-0.468973	-0.403322	-0.507934	-0.49278	-0.328497	0.429434	-0.36959	-0.324382	0.487215	-0.438809	-0.394821	0.336161	-0.511128	0.370856	-0.372751	0.414622	-0.437923	-0.450957	0.600704	-0.351036	0.454391	0.408053	-0.434779	0.434748	-0.354042
-0.49115	0.497042	0.490203	0.39548	0.471425	-0.356653	0.522457	-0.538503	-0.359563	-0.421023	-0.435377	-0.425021	0.511247	-0.505924	-0.431591	0.294187	-0.465054	-0.323394	0.450002	-0.388944	0.471258	-0.490912	0.444005	-0.350078	-0.375109	0.552774	-0.509815	0.362085	0.475074	-0.430369	0.429152	-0.511567
-0.489999	0.45769	0.412421	0.422046	0.554116	-0.483977	0.497342	-0.437369	-0.521255	-0.411871	-0.480924	-0.529268	0.379944	-0.455754	-0.496929	0.502778	-0.54289	-0.506336	0.45059	-0.495882	0.525176	-0.450275	0.534952	-0.378638	-0.442257	0.421072	-0.484752	0.435448	0.417866	-0.485918	0.391083	-0.521167
-0.471155	0.367821	0.465275	0.350269	0.459805	-0.462665	0.483975	-0.517726	-0.348009	-0.403313	-0.371061	-0.36921	0.416601	-0.433965	-0.53661	0.391745	-0.430913	-0.438703	0.331014	-0.316972	0.27726	-0.483574	0.475106	-0.370606	-0.287575	0.540519	-0.447733	0.389282	0.472391	-0.235323	0.536718	-0.489759
-0.495153	0.47067	0.475489	0.533812	0.478394	-0.470708	0.377981	-0.323242	-0.473715	-0.385229	-0.363207	-0.482475	0.411665	-0.497219	-0.377203	0.570985	-0.364671	-0.458878	0.285879	-0.443624	0.619128	-0.464377	0.387781	-0.44693	-0.48468	0.433028	-0.38189	0.452359	0.391558	-0.402942	0.445749	-0.47058
-0.412589	0.487853	0.512269	0.488787	0.432299	-0.49404	0.525764	-0.441733	-0.473836	-0.443693	-0.563495	-0.498635	0.386427	-0.404965	-0.485059	0.436042	-0.519396	-0.36117	0.427169	-0.46272	0.562325	-0.431173	0.495804	-0.456697	-0.499355	0.496907	-0.426166	0.517483	0.536266	-0.391097	0.427201	-0.428549
-0.371846	0.359805	0.386692	0.408699	0.383139	-0.356853	0.27938	-0.386544	-0.403952	-0.414385	-0.336014	-0.417165	0.400233	-0.311006	-0.390422	0.424382	-0.326396	-0.401177	0.273094	-0.437083	0.315515	-0.378758	0.349704	-0.360931	-0.394124	0.339134	-0.381304	0.457317	0.309695	-0.362018	0.339199	-0.291908
-0.489161	0.385862	0.429729	0.389217	0.39346	-0.469647	0.370882	-0.465803	-0.372961	-0.362281	-0.357831	-0.432168	0.362695	-0.500204	-0.501981	0.401419	-0.403266	-0.388517	0.346712	-0.47071	0.409319	-0.483877	0.45424	-0.254573	-0.402514	0.429162	-0.3865	0.351211	0.422453	-0.462946	0.394244	-0.502602
-0.466148	0.442748	0.45103	0.46147	0.443741	-0.337724	0.0801507	-0.536482	-0.466368	-0.509779	-0.46291	-0.421425	0.482397	-0.541944	-0.433079	0.545071	-0.485552	-0.472097	0.525483	-0.40307	0.524124	-0.476302	0.446032	-0.436094	-0.485851	0.41755	-0.52184	0.475866	0.409789	-0.597843	0.472631	-0.4847
-0.437408	0.44229	0.369973	0.434168	0.419863	-0.489474	0.516455	-0.39526	-0.464295	-0.454124	-0.517391	-0.498668	0.433807	-0.485574	-0.395391	0.406569	-0.485993	-0.543648	0.539279	-0.461183	0.314015	-0.457773	0.447847	-0.478688	-0.348027	0.46476	-0.530771	0.487325	0.470922	-0.342053	0.455076	-0.471993
-0.453459	0.340497	0.460047	0.468762	0.370166	-0.440912	0.56666	-0.491145	-0.3651	-0.419431	-0.465474	-0.49194	0.448438	-0.435411	-0.355752	0.304059	-0.409582	-0.360209	0.433776	-0.46354	0.509737	-0.514408	0.355878	-0.33288	-0.476092	0.461432	-0.451797	0.471159	0.467472	-0.428386	0.468709	-0.479943
-0.443515	0.459316	0.476938	0.363285	0.470566	-0.418963	0.410841	-0.448961	-0.520188	-0.414055	-0.413649	-0.482806	0.357882	-0.513992	-0.490467	0.40936	-0.469885	-0.369749	0.40057	-0.532292	0.428848	-0.370116	0.461809	-0.420229	-0.417769	0.500256	-0.425892	0.40467	0.427489	-0.452475	0.375699	-0.504167
-0.418768	0.517284	0.368867	0.520428	0.50681	-0.466905	0.571433	-0.332512	-0.473409	-0.552529	-0.426495	-0.569267	0.430116	-0.405204	-0.499344	0.602164	-0.43028	-0.424234	0.386979	-0.505425	0.443817	-0.528009	0.549614	-0.384041	-0.41366	0.154941	-0.448479	0.359808	0.43938	-0.245942	0.425502	-0.529489
-0.416502	0.378921	0.362089	0.501221	0.521634	-0.503879	0.432384	-0.50887	-0.468181	-0.499926	-0.396558	-0.400674	0.495324	-0.386364	-0.452069	0.52326	-0.478418	-0.441048	0.449744	-0.44782	0.460367	-0.4837	0.404379	-0.423207	-0.428289	0.594649	-0.493127	0.45527	0.485533	-0.477811	0.44928	-0.419122
-0.414492	0.400844	0.477055	0.489969	0.45059	-0.504941	0.494044	-0.447342	-0.466193	-0.495316	-0.413773	-0.475554	0.568134	-0.438474	-0.48188	0.523669	-0.475364	-0.4218	0.444948	-0.424941	0.381514	-0.497158	0.442184	-0.50741	-0.443605	0.584945	-0.492486	0.503075	0.421494	-0.421638	0.453746	-0.464104
-0.379068	0.470282	0.406956	0.466563	0.45673	-0.448265	0.394342	-0.513792	-0.468604	-0.448102	-0.494507	-0.421055	0.43062	-0.462803	-0.474047	0.264774	-0.438096	-0.488786	0.442029	-0.339381	0.213609	-0.469394	0.481333	-0.520974	-0.4443	0.545702	-0.442187	0.524117	0.435521	-0.333527	0.467535	-0.533895
-0.460069	0.5529	0.429807	0.468927	0.499741	-0.457959	0.527226	-0.353484	-0.494857	-0.479359	-0.451672	-0.426194	0.445392	-0.482213	-0.521726	0.34408	-0.423891	-0.446364	0.42178	-0.378859	0.272909	-0.473481	0.47611	-0.370112	-0.402395	0.418517	-0.437208	0.455887	0.419719	-0.352853	0.414756	-0.467117
-0.4639	0.481496	0.527634	0.416713	0.47678	-0.294075	0.438727	-0.393963	-0.447679	-0.395396	-0.5406	-0.553421	0.299666	-0.433614	-0.546167	0.348203	-0.313571	-0.320982	0.4823	-0.421179	0.574463	-0.501135	0.427675	-0.370483	-0.39357	0.444354	-0.429858	0.503957	0.374517	-0.245517	0.45965	-0.449948
-0.377292	0.45412	0.493366	0.418049	0.482341	-0.402524	0.350936	-0.435214	-0.434182	-0.511129	-0.40164	-0.369485	0.451726	-0.474004	-0.469117	0.337347	-0.393352	-0.473726	0.337517	-0.449567	0.363582	-0.395043	0.377673	-0.321105	-0.427692	0.474071	-0.501979	0.477364	0.415403	-0.406542	0.49585	-0.39451
-0.485573	0.440932	0.394448	0.411941	0.435218	-0.533717	0.417721	-0.37566	-0.502554	-0.44959	-0.519522	-0.419057	0.521647	-0.447697	-0.510585	0.372786	-0.423375	-0.348867	0.307075	-0.477341	0.311118	-0.497192	0.467431	-0.505702	-0.400572	0.502461	-0.495894	0.454844	0.443278	-0.270728	0.4491	-0.395388
-0.455934	0.458467	0.424634	0.431299	0.429414	-0.468797	0.455867	-0.528589	-0.437217	-0.457617	-0.432901	-0.492018	0.369743	-0.432343	-0.457187	0.501957	-0.510256	-0.54125	0.481257	-0.444579	0.354917	-0.434625	0.473203	-0.460445	-0.435261	0.458704	-0.43891	0.397482	0.419461	-0.434681	0.430178	-0.407339
-0.38105	0.496523	0.495766	0.384665	0.423885	-0.496309	0.401982	-0.470079	-0.482417	-0.453433	-0.408734	-0.444432	0.499704	-0.407531	-0.449371	0.491368	-0.509735	-0.515418	0.505454	-0.475464	0.495605	-0.325355	0.472098	-0.381403	-0.387368	0.506171	-0.450613	0.440722	0.419384	-0.374285	0.412099	-0.39852
-0.369538	0.512143	0.375438	0.345771	0.466588	-0.44808	0.462785	-0.350105	-0.518284	-0.42522	-0.424849	-0.409496	0.372457	-0.539671	-0.495589	0.440574	-0.435786	-0.483314	0.525664	-0.49562	0.361453	-0.38944	0.448803	-0.429374	-0.491197	0.432302	-0.453279	0.426918	0.420542	-0.264907	0.390448	-0.48985
-0.458919	0.492251	0.560671	0.475954	0.541306	-0.46042	0.532326	-0.487818	-0.534744	-0.463421	-0.527444	-0.548858	0.396224	-0.525705	-0.452898	0.399852	-0.428202	-0.458353	0.484064	-0.534124	0.388816	-0.487388	0.470151	-0.438419	-0.513119	0.40014	-0.44763	0.501328	0.49348	-0.473778	0.518054	-0.417648
-0.416065	0.493223	0.446184	0.400563	0.507065	-0.484336	0.422726	-0.458985	-0.400064	-0.420342	-0.446854	-0.365523	0.490932	-0.48332	-0.413304	0.366396	-0.457167	-0.426715	0.449106	-0.482917	0.296821	-0.435693	0.391947	-0.510572	-0.50658	0.462867	-0.439867	0.405056	0.529822	-0.463897	0.501787	-0.503151
-0.41758	0.419011	0.441	0.492756	0.417365	-0.367575	0.509221	-0.505164	-0.44953	-0.50299	-0.4211	-0.524494	0.480788	-0.398107	-0.432894	0.475879	-0.437248	-0.470367	0.508348	-0.507246	0.318958	-0.520101	0.425674	-0.441222	-0.523797	0.468991	-0.427386	0.520397	0.468747	-0.329145	0.391787	-0.441958
-0.474411	0.494172	0.536153	0.472886	0.458662	-0.466508	0.523882	-0.520674	-0.473401	-0.386019	-0.502917	-0.477987	0.495456	-0.445749	-0.484688	0.379023	-0.468365	-0.451196	0.417986	-0.51529	0.490571	-0.462226	0.547704	-0.413959	-0.482423	0.482208	-0.468032	0.529327	0.481428	-0.372021	0.460661	-0.489891
-0.466025	0.557458	0.416312	0.470788	0.516823	-0.443146	0.546669	-0.495453	-0.482355	-0.477796	-0.449459	-0.441783	0.564871	-0.422967	-0.428394	0.408202	-0.371401	-0.431873	0.413942	-0.406866	0.433729	-0.419278	0.502625	-0.404406	-0.442254	0.385928	-0.457459	0.42987	0.519109	-0.553704	0.521112	-0.460752
-0.4038	0.458558	0.441045	0.401373	0.431823	-0.453053	0.482443	-0.479596	-0.470641	-0.434078	-0.524132	-0.416688	0.540526	-0.506264	-0.417863	0.47173	-0.429831	-0.424217	0.441124	-0.4263	0.499727	-0.500547	0.519759	-0.506799	-0.431223	0.296237	-0.477384	0.500372	0.447505	-0.466367	0.4614	-0.471017
-0.446692	0.406536	0.427943	0.504804	0.497314	-0.420547	0.367496	-0.419636	-0.450914	-0.391744	-0.466256	-0.460945	0.444672	-0.485032	-0.513178	0.486987	-0.375965	-0.399002	0.523935	-0.464594	0.346968	-0.50744	0.462364	-0.438444	-0.464444	0.523129	-0.42681	0.526604	0.430973	-0.362239	0.440241	-0.436059
-0.465739	0.377859	0.480405	0.389443	0.452618	-0.485723	0.413017	-0.409078	-0.404761	-0.440746	-0.416762	-0.347648	0.354911	-0.48156	-0.37316	0.388335	-0.443017	-0.452581	0.497251	-0.48923	0.362656	-0.443158	0.419921	-0.382727	-0.468421	0.485571	-0.460893	0.407232	0.450583	-0.447423	0.420113	-0.411218
-0.523729	0.301384	0.519278	0.437872	0.490421	-0.443202	0.407409	-0.480651	-0.475597	-0.419425	-0.460966	-0.438964	0.40037	-0.502134	-0.566201	0.549494	-0.458554	-0.459668	0.505363	-0.550581	0.274103	-0.489155	0.484879	-0.51101	-0.476595	0.560998	-0.51554	0.398261	0.440646	-0.376527	0.530745	-0.508679
-0.505093	0.369766	0.535163	0.370614	0.483272	-0.400344	0.456899	-0.506503	-0.514199	-0.526734	-0.504624	-0.524451	0.508482	-0.444369	-0.479939	0.434123	-0.489448	-0.539232	0.467771	-0.538608	0.217163	-0.519015	0.423505	-0.560355	-0.523176	0.439499	-0.501325	0.405723	0.417642	-0.318838	0.48697	-0.479012
-0.470524	0.494622	0.437457	0.464781	0.368496	-0.345343	0.359572	-0.402264	-0.496481	-0.509406	-0.456123	-0.482073	0.373966	-0.404583	-0.501349	0.501663	-0.423762	-0.481603	0.490999	-0.519084	0.441656	-0.515529	0.423311	-0.412916	-0.519762	0.382807	-0.405177	0.474365	0.443632	-0.374375	0.450734	-0.4972
-0.442461	0.37689	0.446109	0.374176	0.363017	-0.519083	0.22132	-0.383746	-0.419347	-0.36686	-0.373346	-0.370149	0.308974	-0.373991	-0.421898	0.412607	-0.477602	-0.434708	0.440218	-0.453916	0.414127	-0.467623	0.41311	-0.411305	-0.398805	0.575214	-0.38216	0.360087	0.435187	-0.306377	0.459145	-0.384013
-0.381907	0.391105	0.473653	0.419635	0.459858	-0.473653	0.441511	-0.36937	-0.428429	-0.378257	-0.383393	-0.456408	0.513851	-0.406235	-0.387519	0.49451	-0.475546	-0.406518	0.455386	-0.413506	0.453294	-0.505333	0.37102	-0.405668	-0.452447	0.564757	-0.451297	0.457728	0.423362	-0.368378	0.417245	-0.358348
-0.503481	0.441483	0.403442	0.415098	0.441083	-0.352982	0.22272	-0.532189	-0.550767	-0.422105	-0.49541	-0.489275	0.447192	-0.472195	-0.345566	0.541944	-0.437322	-0.39141	0.35132	-0.497361	0.434449	-0.461936	0.532416	-0.497729	-0.413109	0.469728	-0.460232	0.543446	0.399422	-0.320653	0.404397	-0.435776
-0.431659	0.466332	0.447884	0.47437	0.432278	-0.422907	0.359648	-0.405498	-0.497869	-0.52012	-0.44762	-0.488721	0.421736	-0.367641	-0.405139	0.310207	-0.546006	-0.534697	0.453736	-0.394763	0.48731	-0.363139	0.450586	-0.348775	-0.350116	0.423465	-0.515778	0.465158	0.371862	-0.45511	0.42097	-0.374162
-0.4598	0.426938	0.498952	0.525609	0.430497	-0.475983	0.570067	-0.520881	-0.403453	-0.510196	-0.498626	-0.57071	0.514858	-0.405555	-0.475551	0.300637	-0.438739	-0.48242	0.444309	-0.461412	0.446206	-0.408008	0.453969	-0.530777	-0.445562	0.339307	-0.453194	0.474926	0.5524	-0.556071	0.52492	-0.561094
-0.487162	0.47805	0.476191	0.509833	0.489281	-0.470431	0.521963	-0.45245	-0.500992	-0.473649	-0.543137	-0.481673	0.472059	-0.456919	-0.501782	0.399281	-0.53881	-0.484617	0.496046	-0.462853	0.321727	-0.482816	0.467932	-0.510879	-0.443896	0.503518	-0.553349	0.548841	0.498495	-0.450048	0.428359	-0.485182
-0.422281	0.433825	0.445633	0.486819	0.418038	-0.394366	0.454216	-0.436806	-0.444885	-0.534773	-0.505838	-0.525579	0.438644	-0.422104	-0.415116	0.377309	-0.487674	-0.53143	0.545944	-0.483813	0.415336	-0.499266	0.407766	-0.431397	-0.481266	0.371489	-0.425481	0.495566	0.459201	-0.470231	0.451952	-0.5159
-0.387482	0.469355	0.368046	0.383284	0.457617	-0.397507	0.414339	-0.385618	-0.343457	-0.4892	-0.400125	-0.42004	0.399712	-0.449002	-0.457837	0.444873	-0.508034	-0.420024	0.450704	-0.445377	0.440139	-0.435745	0.489551	-0.453421	-0.538702	0.449427	-0.460848	0.502151	0.407493	-0.334835	0.472058	-0.383602
-0.425735	0.44863	0.374016	0.48679	0.475297	-0.403752	0.513035	-0.462876	-0.536148	-0.434782	-0.452339	-0.357214	0.515465	-0.38314	-0.459841	0.441036	-0.412513	-0.49221	0.351535	-0.415698	0.299896	-0.514074	0.42898	-0.450354	-0.452507	0.546335	-0.490004	0.522324	0.486884	-0.436259	0.433109	-0.487963
-0.34835	0.360734	0.425787	0.373458	0.399583	-0.544459	0.319128	-0.333955	-0.458041	-0.47832	-0.466721	-0.415728	0.432532	-0.494067	-0.581977	0.42706	-0.370388	-0.361087	0.450384	-0.472622	0.224901	-0.539162	0.450437	-0.429977	-0.305068	0.507683	-0.451902	0.440446	0.358515	-0.626082	0.507007	-0.337587
-0.446382	0.502393	0.447881	0.563794	0.533123	-0.481408	0.587857	-0.41723	-0.487835	-0.501743	-0.524597	-0.533714	0.474372	-0.471157	-0.462361	0.389996	-0.552394	-0.4709	0.531821	-0.444677	0.501769	-0.496669	0.457555	-0.3894	-0.55323	0.338543	-0.4427	0.49158	0.544284	-0.457464	0.496698	-0.447891
-0.382249	0.53062	0.440944	0.502217	0.544843	-0.286754	0.306583	-0.495934	-0.476427	-0.535354	-0.408798	-0.563105	0.492126	-0.397845	-0.512841	0.491805	-0.409583	-0.346951	0.45506	-0.484644	0.350429	-0.425898	0.420848	-0.344764	-0.468184	0.521003	-0.493681	0.42645	0.489147	-0.515279	0.465793	-0.405052
-0.471537	0.483215	0.4908	0.462843	0.497091	-0.525948	0.488812	-0.429313	-0.511895	-0.519621	-0.486894	-0.395328	0.46088	-0.489318	-0.430479	0.296399	-0.471554	-0.500003	0.411182	-0.468823	0.319138	-0.453341	0.542792	-0.541357	-0.458201	0.461886	-0.502765	0.503389	0.544095	-0.441188	0.473585	-0.551298
-0.448396	0.445062	0.513675	0.380913	0.470265	-0.451916	0.444781	-0.488322	-0.537326	-0.470567	-0.43001	-0.54656	0.415932	-0.491378	-0.529443	0.423519	-0.401843	-0.470692	0.401456	-0.506759	0.345962	-0.433085	0.44698	-0.412982	-0.50399	0.547816	-0.543681	0.466387	0.484295	-0.43645	0.464599	-0.534219
-0.49981	0.460586	0.428144	0.415524	0.486844	-0.399345	0.451841	-0.377127	-0.414142	-0.415742	-0.411163	-0.454851	0.397446	-0.423027	-0.486704	0.448018	-0.395276	-0.407615	0.466197	-0.404472	0.374587	-0.430327	0.40823	-0.499611	-0.427711	0.51573	-0.504115	0.402587	0.450273	-0.362412	0.481302	-0.495259
-0.48966	0.466657	0.489326	0.484983	0.420311	-0.449915	0.40635	-0.535588	-0.302916	-0.381852	-0.379817	-0.523496	0.249395	-0.479778	-0.422624	0.43554	-0.377394	-0.416422	0.519112	-0.390141	0.411782	-0.383156	0.389059	-0.391432	-0.433706	0.240414	-0.489177	0.375793	0.400019	-0.435592	0.401304	-0.400479
-0.498916	0.457338	0.459613	0.42155	0.484202	-0.502098	0.438113	-0.443302	-0.483501	-0.434079	-0.479997	-0.498329	0.425326	-0.43439	-0.410992	0.413548	-0.383224	-0.479599	0.405571	-0.397135	0.448435	-0.47253	0.475345	-0.515892	-0.374956	0.560905	-0.396458	0.444154	0.453544	-0.489106	0.418282	-0.376476
-0.455761	0.416097	0.439343	0.420495	0.495096	-0.473112	0.586985	-0.445541	-0.465036	-0.398421	-0.502082	-0.397562	0.407969	-0.458018	-0.441081	0.367175	-0.41656	-0.535173	0.494672	-0.50196	0.53397	-0.416436	0.398467	-0.367588	-0.421224	0.437098	-0.454987	0.535888	0.490405	-0.444249	0.458227	-0.485975
-0.504888	0.481393	0.445977	0.455372	0.381404	-0.390302	0.386636	-0.372943	-0.40669	-0.404385	-0.501801	-0.448899	0.401588	-0.510903	-0.383944	0.446133	-0.409255	-0.528014	0.43553	-0.434872	0.356734	-0.409559	0.446755	-0.433588	-0.445346	0.507092	-0.446079	0.44834	0.430597	-0.532368	0.411277	-0.473236
-0.503809	0.383317	0.460214	0.425696	0.442984	-0.516207	0.472682	-0.369954	-0.459562	-0.461516	-0.468963	-0.511123	0.417073	-0.427439	-0.442192	0.541243	-0.462503	-0.494929	0.367549	-0.415592	0.334838	-0.431167	0.412758	-0.404867	-0.452483	0.561727	-0.459415	0.490767	0.482497	-0.386041	0.426221	-0.460413
-0.37572	0.548924	0.493079	0.405926	0.436983	-0.435174	0.50192	-0.483067	-0.513514	-0.386531	-0.459683	-0.459829	0.414294	-0.498474	-0.430407	0.519717	-0.478011	-0.491415	0.502269	-0.457497	0.326278	-0.449467	0.449388	-0.541092	-0.4825	0.46476	-0.443004	0.423231	0.397477	-0.36636	0.520245	-0.419957
-0.408137	0.502357	0.425774	0.51992	0.50648	-0.350466	0.485916	-0.452676	-0.515055	-0.516338	-0.470234	-0.462234	0.482325	-0.38793	-0.42585	0.380504	-0.359367	-0.370385	0.494525	-0.366359	0.29197	-0.373996	0.450369	-0.387038	-0.404671	0.36795	-0.398462	0.401105	0.364853	-0.491349	0.427488	-0.436464
-0.442594	0.500068	0.475256	0.518219	0.484567	-0.521058	0.470102	-0.444937	-0.42344	-0.487047	-0.493294	-0.468565	0.356609	-0.451324	-0.468171	0.380456	-0.506018	-0.524064	0.425936	-0.407605	0.32395	-0.415017	0.488724	-0.407208	-0.414884	0.455316	-0.475783	0.419209	0.509131	-0.412329	0.405241	-0.387336
-0.446332	0.511618	0.422727	0.419167	0.486806	-0.350066	0.563784	-0.508248	-0.43589	-0.517917	-0.442534	-0.429155	0.41929	-0.426962	-0.442446	0.405696	-0.436484	-0.536527	0.41981	-0.396423	0.408667	-0.436186	0.472462	-0.462139	-0.429312	0.494521	-0.411744	0.498943	0.395174	-0.420533	0.398591	-0.394409
-0.413893	0.458371	0.418999	0.466067	0.495857	-0.451983	0.534072	-0.429095	-0.407368	-0.500119	-0.443399	-0.360976	0.417064	-0.543219	-0.445655	0.434466	-0.440427	-0.416613	0.496292	-0.503223	0.605726	-0.406176	0.423478	-0.501368	-0.439299	0.514415	-0.432024	0.441974	0.397858	-0.466205	0.541423	-0.435855
-0.385704	0.552991	0.510648	0.491043	0.403562	-0.362478	0.535234	-0.452455	-0.481707	-0.389823	-0.496879	-0.550557	0.564054	-0.486335	-0.310332	0.241085	-0.385922	-0.297144	0.545795	-0.533932	0.589244	-0.363816	0.451244	-0.501368	-0.460854	0.235352	-0.490786	0.419099	0.387953	-0.549619	0.376937	-0.519194
-0.479453	0.511736	0.421194	0.523679	0.515194	-0.507876	0.480238	-0.514799	-0.488242	-0.468034	-0.500032	-0.416893	0.47754	-0.508717	-0.414928	0.395933	-0.472014	-0.460213	0.520746	-0.48797	0.427248	-0.42213	0.4241	-0.547374	-0.521879	0.443714	-0.404024	0.420865	0.414179	-0.459379	0.4701	-0.461118
-0.514825	0.503629	0.419395	0.524522	0.442538	-0.434463	0.532265	-0.498175	-0.45391	-0.513381	-0.482416	-0.475241	0.497539	-0.519706	-0.367837	0.463316	-0.42009	-0.482146	0.547534	-0.482872	0.494086	-0.435971	0.459652	-0.477618	-0.428189	0.406924	-0.404293	0.470168	0.3978	-0.536918	0.397535	-0.493601
-0.458616	0.391549	0.477351	0.372157	0.504734	-0.422263	0.474951	-0.411852	-0.404776	-0.3983	-0.382875	-0.428555	0.398944	-0.341655	-0.401118	0.327952	-0.452058	-0.397324	0.355681	-0.415461	0.323564	-0.396394	0.382801	-0.49784	-0.409921	0.380383	-0.462424	0.47145	0.381177	-0.441362	0.360726	-0.387863
-0.497046	0.480215	0.504737	0.483964	0.409748	-0.459009	0.522034	-0.421641	-0.410092	-0.535535	-0.441504	-0.509612	0.501284	-0.502865	-0.464929	0.428179	-0.442473	-0.454738	0.383539	-0.469873	0.468868	-0.428027	0.476129	-0.458187	-0.516209	0.439545	-0.384887	0.397742	0.430886	-0.525575	0.409511	-0.498157
-0.506669	0.462095	0.407503	0.465829	0.470905	-0.412706	0.467508	-0.490693	-0.460297	-0.419194	-0.425109	-0.389849	0.389458	-0.449092	-0.426443	0.385634	-0.440992	-0.446409	0.418338	-0.437861	0.351605	-0.514697	0.422136	-0.510227	-0.414316	0.469368	-0.46832	0.401783	0.487111	-0.456224	0.440496	-0.47179
-0.383294	0.352179	0.387478	0.36983	0.341129	-0.410397	0.405841	-0.477679	-0.391017	-0.423857	-0.444141	-0.480201	0.402544	-0.346628	-0.426927	0.537097	-0.352454	-0.374664	0.413485	-0.435558	0.307086	-0.433359	0.478596	-0.374597	-0.433609	0.40005	-0.385554	0.43028	0.390888	-0.38191	0.375023	-0.293321
-0.391906	0.415939	0.521131	0.35822	0.497729	-0.40134	0.418437	-0.526789	-0.389123	-0.371701	-0.463426	-0.415257	0.340233	-0.39512	-0.391694	0.567314	-0.40811	-0.36222	0.40158	-0.464772	0.522084	-0.493234	0.421909	-0.49155	-0.52281	0.490178	-0.446614	0.40875	0.366221	-0.337274	0.399073	-0.536892
-0.492314	0.537848	0.438056	0.497321	0.418967	-0.403957	0.56405	-0.498631	-0.41291	-0.417071	-0.453318	-0.39856	0.495389	-0.426735	-0.383445	0.411243	-0.464366	-0.377175	0.464701	-0.436993	0.484312	-0.501099	0.386572	-0.406496	-0.496656	0.545272	-0.4932	0.44683	0.51051	-0.393294	0.392605	-0.436553
-0.447967	0.367519	0.480774	0.412372	0.454251	-0.425067	0.285282	-0.444275	-0.406068	-0.452198	-0.400059	-0.483968	0.30981	-0.4412	-0.508391	0.37438	-0.419555	-0.401208	0.512446	-0.376382	0.402234	-0.463485	0.492447	-0.516948	-0.342554	0.484501	-0.449318	0.494108	0.442433	-0.277453	0.49028	-0.453537
-0.411688	0.497853	0.457029	0.443223	0.320071	-0.288126	0.400639	-0.380671	-0.3846	-0.334562	-0.358842	-0.372805	0.275221	-0.290499	-0.351815	0.196395	-0.470489	-0.534842	0.27519	-0.430795	0.492371	-0.353525	0.306715	-0.225966	-0.528142	0.24506	-0.400786	0.406351	0.317497	-0.552845	0.478001	-0.448014
-0.449483	0.375004	0.472185	0.465077	0.468737	-0.489787	0.387264	-0.355734	-0.406588	-0.369721	-0.479574	-0.357182	0.406078	-0.433822	-0.43025	0.449733	-0.422978	-0.442379	0.449777	-0.36433	0.438387	-0.401526	0.337804	-0.380501	-0.308795	0.339806	-0.449509	0.419708	0.464049	-0.292331	0.366546	-0.412865
-0.462414	0.428785	0.487438	0.497108	0.411978	-0.451897	0.402426	-0.445165	-0.47357	-0.478109	-0.42461	-0.425974	0.383841	-0.485717	-0.457214	0.473402	-0.467351	-0.446004	0.439746	-0.492446	0.417338	-0.451768	0.434563	-0.420896	-0.350767	0.385611	-0.48633	0.429355	0.499657	-0.474643	0.466182	-0.477445
-0.358313	0.423693	0.497622	0.488645	0.39441	-0.420355	0.574387	-0.374745	-0.510588	-0.465941	-0.489699	-0.394275	0.4637	-0.427303	-0.506843	0.42341	-0.376652	-0.493543	0.458237	-0.37096	0.331494	-0.436857	0.509416	-0.362939	-0.448181	0.40074	-0.413575	0.470918	0.398564	-0.489419	0.505704	-0.497567
-0.488474	0.506411	0.362129	0.427055	0.377946	-0.488016	0.573392	-0.469777	-0.411075	-0.503524	-0.525365	-0.48965	0.401983	-0.540744	-0.457822	0.511186	-0.389205	-0.523358	0.52003	-0.505333	0.327721	-0.417216	0.397021	-0.42378	-0.453132	0.431254	-0.484674	0.4372	0.412776	-0.268176	0.372958	-0.468553
-0.453064	0.389221	0.448402	0.479171	0.352424	-0.368084	0.491694	-0.357207	-0.336965	-0.407832	-0.5077	-0.405408	0.411865	-0.484309	-0.409965	0.409449	-0.459776	-0.364564	0.448567	-0.378763	0.481035	-0.486865	0.365369	-0.422686	-0.408944	0.426984	-0.453591	0.395717	0.361902	-0.344602	0.347809	-0.472804
-0.489384	0.482228	0.441393	0.48111	0.470279	-0.449966	0.494638	-0.47679	-0.333813	-0.452578	-0.377162	-0.453598	0.343229	-0.423136	-0.548664	0.403315	-0.552654	-0.399468	0.337461	-0.493804	0.461872	-0.484141	0.39843	-0.509901	-0.521185	0.537446	-0.475056	0.45092	0.464693	-0.340761	0.484714	-0.473499
-0.481852	0.426707	0.453223	0.416518	0.358423	-0.474546	0.410145	-0.39539	-0.440724	-0.409205	-0.392848	-0.476591	0.390964	-0.445122	-0.382628	0.373717	-0.450326	-0.469752	0.351335	-0.396436	0.350165	-0.439477	0.443197	-0.425099	-0.397802	0.45244	-0.455049	0.465226	0.484628	-0.367294	0.411788	-0.446886
-0.470376	0.497492	0.437572	0.42407	0.487815	-0.485256	0.504465	-0.415791	-0.492423	-0.432302	-0.494695	-0.323149	0.467642	-0.469145	-0.330286	0.506596	-0.318837	-0.485241	0.45684	-0.397206	0.225168	-0.438645	0.443125	-0.403635	-0.359952	0.497946	-0.456155	0.399226	0.452401	-0.50785	0.441153	-0.490664
-0.378515	0.455836	0.457014	0.424061	0.448541	-0.396381	0.464871	-0.389126	-0.451476	-0.407703	-0.45511	-0.476428	0.397718	-0.49106	-0.35087	0.35666	-0.447812	-0.447686	0.468628	-0.431283	0.441402	-0.407347	0.442834	-0.491266	-0.414161	0.383679	-0.484616	0.439634	0.466151	-0.420119	0.363138	-0.433313
-0.505273	0.346416	0.453777	0.421859	0.406221	-0.528526	0.395333	-0.398983	-0.457994	-0.506501	-0.49563	-0.327658	0.418308	-0.431895	-0.345122	0.597786	-0.465283	-0.342365	0.392773	-0.377168	0.38657	-0.451261	0.435588	-0.487026	-0.41008	0.400374	-0.398352	0.511876	0.401229	-0.279222	0.397764	-0.395552
-0.496692	0.495247	0.394605	0.509655	0.421855	-0.509812	0.304523	-0.397652	-0.427519	-0.411057	-0.469182	-0.49597	0.404484	-0.458104	-0.406843	0.409578	-0.468474	-0.393235	0.307895	-0.444503	0.402866	-0.412387	0.389889	-0.339243	-0.467615	0.466097	-0.493338	0.49469	0.372699	-0.464296	0.473027	-0.46719
-0.483672	0.542935	0.500784	0.450814	0.460524	-0.338409	0.477418	-0.411189	-0.494297	-0.433613	-0.441457	-0.418263	0.465788	-0.464748	-0.371136	0.298974	-0.498717	-0.409477	0.488113	-0.479622	0.411923	-0.444589	0.405816	-0.471571	-0.532791	0.469754	-0.419763	0.41094	0.390392	-0.503761	0.505813	-0.484778
-0.510046	0.518182	0.529948	0.524559	0.492816	-0.375046	0.363777	-0.52807	-0.432179	-0.525296	-0.447125	-0.532215	0.458443	-0.440179	-0.471145	0.445507	-0.382101	-0.490663	0.380411	-0.423489	0.419549	-0.413153	0.502305	-0.466319	-0.442679	0.517355	-0.397879	0.410697	0.476867	-0.550246	0.505112	-0.464119
-0.461084	0.526303	0.488518	0.465114	0.489412	-0.479696	0.296515	-0.522005	-0.47884	-0.447874	-0.488396	-0.419265	0.343663	-0.401173	-0.456078	0.546927	-0.556895	-0.518731	0.455634	-0.378248	0.498527	-0.545124	0.451352	-0.420904	-0.420615	0.240826	-0.412826	0.456238	0.373498	-0.421906	0.454092	-0.37804
-0.482864	0.455157	0.50961	0.406415	0.443148	-0.529332	0.510811	-0.505874	-0.428859	-0.394212	-0.43391	-0.35455	0.50891	-0.426692	-0.355548	0.434346	-0.471879	-0.47729	0.518039	-0.390742	0.353646	-0.437583	0.48595	-0.500585	-0.509686	0.4944	-0.434736	0.491815	0.464998	-0.465448	0.494475	-0.451172
-0.525149	0.491657	0.521296	0.560888	0.43342	-0.397435	0.564127	-0.537903	-0.512127	-0.448224	-0.483998	-0.372741	0.478888	-0.476006	-0.531578	0.447468	-0.478074	-0.48971	0.426418	-0.505665	0.543267	-0.478261	0.525775	-0.432392	-0.442888	0.600834	-0.525395	0.549014	0.52128	-0.346581	0.515875	-0.40998
-0.433976	0.402841	0.417725	0.496337	0.429354	-0.483234	0.357985	-0.404993	-0.489993	-0.45046	-0.473469	-0.460503	0.473775	-0.472326	-0.42067	0.428734	-0.38441	-0.48805	0.423353	-0.477094	0.388544	-0.444108	0.398124	-0.439198	-0.465937	0.428842	-0.480143	0.396079	0.382569	-0.405679	0.418849	-0.394294
-0.377634	0.397046	0.417	0.397917	0.456067	-0.45297	0.367886	-0.443422	-0.466479	-0.467479	-0.426308	-0.403027	0.363132	-0.510718	-0.36708	0.5409	-0.446672	-0.395144	0.438617	-0.413893	0.515839	-0.480893	0.502378	-0.512728	-0.296216	0.303618	-0.453823	0.487168	0.524251	-0.588402	0.438903	-0.410217
-0.405717	0.470612	0.335244	0.361901	0.508961	-0.498699	0.194979	-0.404558	-0.388432	-0.547046	-0.36977	-0.532321	0.284155	-0.418321	-0.355467	0.509826	-0.427066	-0.489122	0.294446	-0.498268	0.623309	-0.340428	0.515103	-0.208468	-0.5937	0.172011	-0.3944	0.568269	0.474867	-0.448262	0.430317	-0.318459
-0.433182	0.513588	0.493968	0.488946	0.473436	-0.441122	0.392876	-0.423153	-0.402882	-0.441261	-0.540394	-0.375042	0.450355	-0.390988	-0.41785	0.405715	-0.412409	-0.480306	0.512925	-0.484005	0.481272	-0.529442	0.466252	-0.498229	-0.461222	0.477204	-0.445713	0.399393	0.513115	-0.498191	0.370155	-0.433021
-0.508628	0.505296	0.430259	0.404146	0.48529	-0.354573	0.49522	-0.445361	-0.361842	-0.397809	-0.4531	-0.505584	0.457574	-0.41579	-0.381075	0.403003	-0.507123	-0.442509	0.37674	-0.434034	0.361343	-0.407683	0.525102	-0.415692	-0.529541	0.35845	-0.41537	0.394983	0.459458	-0.533121	0.484231	-0.389585
-0.458074	0.39976	0.429687	0.428105	0.475524	-0.499417	0.489095	-0.395179	-0.480943	-0.450745	-0.418728	-0.423041	0.448235	-0.442944	-0.399768	0.334459	-0.48693	-0.454602	0.528222	-0.44495	0.435573	-0.447252	0.411487	-0.383509	-0.404093	0.281423	-0.480132	0.422845	0.459091	-0.465039	0.477632	-0.407279
-0.545183	0.506842	0.518096	0.397856	0.441591	-0.531035	0.416508	-0.525048	-0.467026	-0.43405	-0.435789	-0.521821	0.498504	-0.507427	-0.433263	0.552386	-0.531606	-0.381381	0.462062	-0.497618	0.298686	-0.538092	0.50122	-0.418706	-0.428784	0.444859	-0.509312	0.433544	0.441783	-0.419615	0.541533	-0.398944
-0.425408	0.328823	0.407885	0.410083	0.511431	-0.34702	0.381813	-0.255857	-0.488588	-0.421219	-0.44265	-0.472079	0.370744	-0.528367	-0.447698	0.623685	-0.299635	-0.47559	0.513973	-0.542853	0.211559	-0.423949	0.463934	-0.405018	-0.407596	0.460374	-0.42488	0.437479	0.436209	-0.405537	0.512603	-0.402289
-0.498904	0.423265	0.413011	0.462158	0.406667	-0.383545	0.470133	-0.568859	-0.497171	-0.472782	-0.522834	-0.455981	0.414414	-0.535092	-0.334541	0.415784	-0.411474	-0.57417	0.545759	-0.468681	0.210527	-0.472654	0.387852	-0.563723	-0.451027	0.393254	-0.414975	0.521384	0.472043	-0.400109	0.495189	-0.453162
-0.45141	0.520776	0.449593	0.41817	0.416158	-0.497941	0.57509	-0.434084	-0.424734	-0.404209	-0.387597	-0.412898	0.564941	-0.422885	-0.403648	0.287561	-0.445032	-0.500671	0.489673	-0.514598	0.567686	-0.415725	0.497045	-0.488655	-0.43132	0.379561	-0.470965	0.550195	0.468517	-0.350543	0.451779	-0.464396
-0.504687	0.430307	0.406705	0.465886	0.407038	-0.380335	0.42546	-0.51844	-0.499351	-0.466356	-0.517245	-0.405355	0.43376	-0.427377	-0.392253	0.402629	-0.359284	-0.51779	0.480695	-0.405632	0.433638	-0.40496	0.36906	-0.407632	-0.422394	0.44769	-0.395358	0.400519	0.362691	-0.472675	0.369608	-0.382157
-0.461349	0.381461	0.427674	0.42358	0.486073	-0.472175	0.546601	-0.493376	-0.452084	-0.489568	-0.504135	-0.453537	0.469792	-0.408129	-0.462516	0.426787	-0.401322	-0.483364	0.387434	-0.477989	0.510729	-0.375394	0.458485	-0.353538	-0.439237	0.430017	-0.469895	0.451471	0.51387	-0.402797	0.424228	-0.359199
-0.486358	0.411432	0.500234	0.520815	0.377032	-0.426759	0.492276	-0.463853	-0.383772	-0.387167	-0.524851	-0.469778	0.413829	-0.455323	-0.381683	0.3514	-0.530646	-0.411711	0.543376	-0.480329	0.345429	-0.507412	0.396215	-0.459114	-0.428299	0.380981	-0.499396	0.448029	0.486823	-0.543173	0.463471	-0.496755
-0.49057	0.46082	0.503923	0.487358	0.478619	-0.465503	0.581404	-0.454286	-0.366183	-0.534689	-0.503015	-0.40524	0.40762	-0.426123	-0.386134	0.509221	-0.42134	-0.404456	0.405601	-0.444167	0.411123	-0.376689	0.44875	-0.501578	-0.490235	0.39418	-0.486404	0.486267	0.522238	-0.502798	0.487878	-0.517477
-0.42762	0.334441	0.401574	0.543684	0.549546	-0.477838	0.290431	-0.426385	-0.398313	-0.507239	-0.544707	-0.51498	0.479135	-0.426202	-0.583685	0.443966	-0.370129	-0.543183	0.372786	-0.403063	0.388646	-0.38122	0.421025	-0.416979	-0.4695	0.497116	-0.449525	0.565349	0.402315	-0.55328	0.407334	-0.434714
-0.464467	0.455901	0.433138	0.508613	0.439145	-0.445811	0.470071	-0.47901	-0.449668	-0.498892	-0.511035	-0.37898	0.489858	-0.477733	-0.444158	0.445256	-0.507076	-0.429481	0.389034	-0.450789	0.429203	-0.5119	0.370414	-0.506127	-0.455882	0.388487	-0.448275	0.399118	0.381181	-0.50667	0.490592	-0.482836
-0.530054	0.384914	0.48459	0.481248	0.435518	-0.352195	0.46626	-0.490401	-0.384739	-0.476092	-0.444152	-0.529969	0.504138	-0.556642	-0.51064	0.385294	-0.394772	-0.423501	0.477133	-0.541365	0.325878	-0.425261	0.409223	-0.411901	-0.463592	0.513838	-0.44935	0.535303	0.450898	-0.387285	0.484295	-0.461244
-0.502556	0.406965	0.473283	0.422297	0.430794	-0.544377	0.417072	-0.410444	-0.422078	-0.446787	-0.443688	-0.39835	0.535123	-0.530172	-0.421814	0.438878	-0.422402	-0.414655	0.479563	-0.463281	0.414244	-0.470397	0.545561	-0.529358	-0.344033	0.472664	-0.504023	0.484162	0.510727	-0.38723	0.445399	-0.461334
-0.547167	0.502043	0.42203	0.398158	0.469452	-0.339055	0.508117	-0.525847	-0.453017	-0.404101	-0.461586	-0.387529	0.413211	-0.490454	-0.532475	0.298819	-0.479631	-0.448472	0.492773	-0.558827	0.430998	-0.543138	0.379373	-0.523489	-0.506302	0.446251	-0.501894	0.465816	0.427144	-0.503072	0.401215	-0.451084
-0.440573	0.453397	0.493151	0.524788	0.373999	-0.468945	0.430078	-0.466234	-0.48213	-0.517396	-0.392776	-0.509831	0.414514	-0.36618	-0.447851	0.412629	-0.366462	-0.438793	0.434338	-0.447274	0.526536	-0.465777	0.39	-0.483595	-0.480837	0.332051	-0.49416	0.454239	0.460416	-0.517591	0.508741	-0.410365
-0.35138	0.544823	0.519099	0.368231	0.438486	-0.452133	0.503388	-0.501525	-0.395601	-0.396024	-0.423762	-0.387951	0.40133	-0.417788	-0.483548	0.391687	-0.459115	-0.427081	0.481482	-0.513621	0.44507	-0.48882	0.500175	-0.434245	-0.366982	0.45282	-0.496808	0.370745	0.369812	-0.534412	0.387203	-0.392999
-0.483922	0.399896	0.398607	0.419764	0.464285	-0.449236	0.451834	-0.411054	-0.473438	-0.408298	-0.496832	-0.503773	0.429691	-0.395435	-0.356802	0.43717	-0.395999	-0.533373	0.392487	-0.372285	0.396832	-0.517652	0.492822	-0.498231	-0.451776	0.461697	-0.381633	0.413926	0.449525	-0.440551	0.443829	-0.421627
-0.392541	0.504924	0.414737	0.521978	0.420995	-0.430268	0.46659	-0.451951	-0.4399	-0.451369	-0.447863	-0.487602	0.361001	-0.468944	-0.438853	0.419763	-0.506251	-0.423026	0.488131	-0.551224	0.498802	-0.41794	0.421312	-0.467535	-0.477638	0.39235	-0.53446	0.522476	0.541894	-0.539608	0.500363	-0.525932
-0.513822	0.459935	0.440702	0.399461	0.336193	-0.282293	0.445009	-0.398047	-0.454186	-0.357842	-0.420356	-0.373134	0.467527	-0.338761	-0.358889	0.518691	-0.443587	-0.503059	0.406512	-0.374007	0.5401	-0.435785	0.431789	-0.393343	-0.421133	0.525923	-0.386477	0.42722	0.380038	-0.332194	0.463814	-0.371327
-0.488484	0.384166	0.517274	0.430948	0.396945	-0.508031	0.279836	-0.383519	-0.405532	-0.381938	-0.485466	-0.454855	0.446936	-0.515329	-0.465459	0.465447	-0.288208	-0.523076	0.341054	-0.517191	0.344511	-0.477344	0.484051	-0.482634	-0.464776	0.147645	-0.484991	0.512307	0.384064	-0.537799	0.381776	-0.384189
-0.435302	0.50228	0.492293	0.439773	0.431479	-0.364175	0.458127	-0.512105	-0.455022	-0.492615	-0.513046	-0.450396	0.414622	-0.458651	-0.516285	0.431923	-0.447626	-0.467656	0.528684	-0.494609	0.224961	-0.460087	0.490003	-0.510778	-0.486095	0.569581	-0.463303	0.445495	0.514529	-0.353583	0.463904	-0.499535
-0.476231	0.470036	0.417349	0.357943	0.447135	-0.354781	0.415825	-0.42289	-0.504398	-0.467374	-0.378325	-0.482729	0.435514	-0.34709	-0.433494	0.285544	-0.420084	-0.346725	0.442748	-0.363376	0.417312	-0.420333	0.495696	-0.429607	-0.486722	0.397355	-0.466085	0.409281	0.494082	-0.323067	0.476559	-0.425169
-0.445117	0.535744	0.505233	0.460876	0.449044	-0.43513	0.472089	-0.46275	-0.476795	-0.412003	-0.497961	-0.466311	0.535357	-0.457854	-0.402423	0.503628	-0.440564	-0.445317	0.507517	-0.430031	0.402111	-0.419651	0.452007	-0.404523	-0.473992	0.336535	-0.468481	0.450396	0.485128	-0.45799	0.400376	-0.518312
-0.545264	0.52899	0.431329	0.528305	0.425954	-0.51107	0.427885	-0.546201	-0.425509	-0.420664	-0.446568	-0.420913	0.430634	-0.4728	-0.510178	0.469634	-0.443203	-0.438686	0.484072	-0.472593	0.386413	-0.459635	0.408926	-0.531709	-0.452237	0.470802	-0.43488	0.469889	0.459144	-0.524861	0.447978	-0.522809
-0.403117	0.528626	0.406294	0.418378	0.495625	-0.371269	0.490926	-0.481147	-0.446494	-0.404162	-0.492946	-0.483858	0.411395	-0.496846	-0.347696	0.424091	-0.523073	-0.442759	0.486133	-0.441831	0.407755	-0.484927	0.404324	-0.553674	-0.47539	0.404904	-0.498691	0.480285	0.487249	-0.500731	0.461298	-0.415984
-0.237632	0.469102	0.334068	0.359677	0.345334	-0.462002	0.336453	-0.36498	-0.414887	-0.443273	-0.353688	-0.350089	0.328525	-0.393741	-0.499518	0.494082	-0.437148	-0.409641	0.329425	-0.422202	0.398344	-0.472113	0.387121	-0.472816	-0.441441	0.383708	-0.472447	0.376089	0.392294	-0.580427	0.382105	-0.510655
-0.417878	0.324243	0.428017	0.375712	0.44731	-0.475593	0.47582	-0.491401	-0.444821	-0.522944	-0.421679	-0.314154	0.368854	-0.439692	-0.411925	0.413434	-0.424886	-0.311471	0.315609	-0.38932	0.394968	-0.440016	0.338332	-0.346969	-0.459668	0.471289	-0.424139	0.406379	0.436246	-0.432537	0.367672	-0.392585
-0.476719	0.342751	0.452819	0.358693	0.463489	-0.554847	0.441242	-0.358866	-0.376167	-0.500423	-0.540815	-0.480983	0.465124	-0.512411	-0.490737	0.467972	-0.595071	-0.454388	0.529373	-0.413799	0.560472	-0.446959	0.379331	-0.558008	-0.358073	0.500562	-0.521864	0.416009	0.393842	-0.473967	0.488646	-0.434416
-0.504408	0.442128	0.49029	0.388041	0.492731	-0.430958	0.397625	-0.478697	-0.455878	-0.503647	-0.546891	-0.456888	0.469367	-0.34226	-0.338236	0.369383	-0.424122	-0.485191	0.510146	-0.425489	0.443173	-0.524674	0.444097	-0.488139	-0.416166	0.236271	-0.42691	0.42136	0.371469	-0.459949	0.389635	-0.497275
-0.443096	0.473613	0.443438	0.383446	0.418962	-0.420752	0.391659	-0.438617	-0.488573	-0.418029	-0.438979	-0.498187	0.474391	-0.499804	-0.393259	0.372289	-0.485453	-0.458086	0.374434	-0.420735	0.483972	-0.358674	0.380061	-0.387695	-0.39802	0.525963	-0.490435	0.441101	0.45021	-0.374908	0.509919	-0.402852
-0.50915	0.562842	0.456507	0.445666	0.46543	-0.429976	0.44389	-0.531811	-0.390379	-0.521392	-0.450536	-0.491097	0.561559	-0.39203	-0.45184	0.457934	-0.463566	-0.459929	0.487467	-0.532362	0.498516	-0.483225	0.448939	-0.548279	-0.455299	0.536207	-0.454072	0.53183	0.452175	-0.474065	0.439024	-0.452017
-0.438883	0.451431	0.490586	0.537933	0.510072	-0.447088	0.449662	-0.434247	-0.439588	-0.456645	-0.468807	-0.505072	0.491035	-0.460053	-0.477841	0.397785	-0.539242	-0.41411	0.456628	-0.398694	0.499138	-0.4334	0.44758	-0.486901	-0.450052	0.37038	-0.405018	0.46867	0.407302	-0.476435	0.44188	-0.488772
-0.519876	0.482284	0.444946	0.539789	0.423914	-0.498457	0.516521	-0.436066	-0.447283	-0.445858	-0.439942	-0.337092	0.397703	-0.518066	-0.491605	0.452125	-0.43782	-0.419492	0.462265	-0.436782	0.401635	-0.426122	0.497438	-0.501791	-0.497074	0.495314	-0.469559	0.488177	0.493041	-0.411849	0.477137	-0.410601
-0.467567	0.429126	0.531642	0.437145	0.391757	-0.46611	0.297866	-0.5241	-0.405209	-0.428512	-0.408442	-0.430355	0.438969	-0.405552	-0.367925	0.509081	-0.412456	-0.395435	0.466245	-0.376305	0.479764	-0.337482	0.471364	-0.415782	-0.432265	0.525804	-0.404112	0.504681	0.376914	-0.417941	0.384468	-0.479028
-0.432585	0.433799	0.459152	0.36929	0.507319	-0.445316	0.511856	-0.385931	-0.399056	-0.418477	-0.510698	-0.56789	0.433979	-0.464005	-0.36971	0.27274	-0.438944	-0.407864	0.506604	-0.51217	0.492244	-0.410671	0.483934	-0.39923	-0.411056	0.49707	-0.409594	0.502755	0.509458	-0.530499	0.482712	-0.42985
-0.499901	0.406325	0.474906	0.462067	0.50585	-0.444966	0.482024	-0.509366	-0.489311	-0.472592	-0.523731	-0.514551	0.423714	-0.436189	-0.464619	0.464111	-0.464303	-0.563924	0.491427	-0.532363	0.56827	-0.537202	0.422899	-0.417463	-0.50317	0.433447	-0.474604	0.44772	0.448256	-0.494835	0.495098	-0.531406
-0.491586	0.549488	0.446881	0.383304	0.467152	-0.440633	0.448351	-0.457809	-0.410322	-0.380825	-0.464136	-0.426495	0.528388	-0.489369	-0.419224	0.420497	-0.418223	-0.37169	0.452673	-0.428552	0.432825	-0.43887	0.469807	-0.568907	-0.328843	0.371589	-0.494326	0.396671	0.495512	-0.50484	0.467918	-0.392346
-0.420468	0.513133	0.519874	0.491823	0.413814	-0.34778	0.462377	-0.390247	-0.473379	-0.5001	-0.441033	-0.544482	0.459739	-0.535916	-0.41795	0.425178	-0.442962	-0.443993	0.449033	-0.387119	0.347307	-0.440667	0.507546	-0.464004	-0.500975	0.304278	-0.475186	0.48021	0.394246	-0.461012	0.429427	-0.450909
-0.463918	0.444461	0.430069	0.494094	0.524365	-0.408818	0.305032	-0.489429	-0.429268	-0.378857	-0.455335	-0.454891	0.476432	-0.507966	-0.483961	0.52103	-0.515694	-0.527987	0.427649	-0.394031	0.315558	-0.438498	0.418626	-0.499239	-0.516223	0.508654	-0.423998	0.375457	0.475905	-0.357599	0.408569	-0.394345
-0.448186	0.38632	0.42244	0.478353	0.425256	-0.472145	0.518979	-0.485585	-0.505327	-0.397544	-0.395066	-0.382077	0.479447	-0.362443	-0.415008	0.3796	-0.405341	-0.401214	0.484663	-0.473496	0.530738	-0.49482	0.462441	-0.434422	-0.503736	0.402753	-0.426697	0.476316	0.475706	-0.433311	0.351205	-0.449255
-0.380115	0.519206	0.405807	0.485836	0.464995	-0.477189	0.438147	-0.510772	-0.34353	-0.5187	-0.454059	-0.453816	0.482177	-0.441201	-0.464702	0.447692	-0.381883	-0.363023	0.493593	-0.481901	0.432004	-0.412988	0.476795	-0.453039	-0.427376	0.483247	-0.381586	0.446082	0.42084	-0.423673	0.494564	-0.484259
-0.465609	0.31065	0.363047	0.352613	0.445208	-0.232479	0.400238	-0.328015	-0.337758	-0.437916	-0.30042	-0.41872	0.40919	-0.403526	-0.391777	0.382873	-0.363803	-0.503881	0.418754	-0.437081	0.414518	-0.354527	0.333248	-0.437006	-0.468413	0.136014	-0.397712	0.472287	0.328863	-0.267707	0.455549	-0.378295
-0.430876	0.427775	0.51901	0.417234	0.423905	-0.433851	0.457743	-0.416915	-0.424612	-0.441158	-0.403475	-0.496765	0.479395	-0.451796	-0.423638	0.32525	-0.403764	-0.436506	0.421173	-0.472736	0.532604	-0.448202	0.451432	-0.469685	-0.484322	0.43434	-0.479003	0.455594	0.49156	-0.463671	0.429571	-0.388326
-0.503758	0.509295	0.448107	0.525415	0.495141	-0.499342	0.395369	-0.449611	-0.498581	-0.42896	-0.471394	-0.529231	0.483652	-0.499475	-0.402603	0.359037	-0.468566	-0.47294	0.433989	-0.509456	0.473604	-0.49563	0.436489	-0.494751	-0.522051	0.5307	-0.42143	0.476744	0.431631	-0.546868	0.515016	-0.480306
-0.464038	0.451555	0.50431	0.407175	0.46744	-0.46597	0.4612	-0.385947	-0.553303	-0.330648	-0.388083	-0.480494	0.519479	-0.579828	-0.554982	0.435174	-0.387752	-0.478506	0.502408	-0.531372	0.59246	-0.566057	0.444656	-0.421907	-0.345362	0.559243	-0.459267	0.50181	0.414494	-0.381792	0.430286	-0.436576
-0.400348	0.389198	0.386902	0.481337	0.367159	-0.517086	0.529675	-0.525348	-0.48156	-0.516675	-0.531682	-0.390628	0.516138	-0.464901	-0.40795	0.373513	-0.421439	-0.413522	0.363283	-0.386209	0.341943	-0.398637	0.379385	-0.433133	-0.39199	0.419552	-0.453507	0.396499	0.471969	-0.422725	0.430214	-0.486142
-0.38737	0.338709	0.369456	0.396036	0.372641	-0.435287	0.303422	-0.394481	-0.452141	-0.399715	-0.3273	-0.475771	0.403613	-0.461827	-0.327983	0.448532	-0.403847	-0.435498	0.243911	-0.43538	0.369648	-0.405371	0.490026	-0.445496	-0.477455	0.461012	-0.347814	0.365204	0.299295	-0.434754	0.411331	-0.425433
-0.486699	0.509771	0.46547	0.397771	0.434203	-0.439687	0.512823	-0.504374	-0.438596	-0.437802	-0.413564	-0.433859	0.476952	-0.360141	-0.38915	0.479624	-0.508746	-0.471506	0.471526	-0.404383	0.352639	-0.41582	0.419765	-0.45195	-0.419897	0.330487	-0.498369	0.489119	0.511331	-0.348799	0.387864	-0.386202
-0.429608	0.490983	0.519734	0.424004	0.428767	-0.51401	0.583269	-0.390234	-0.446072	-0.399825	-0.469313	-0.352018	0.300711	-0.501507	-0.344052	0.591502	-0.3342	-0.44944	0.515219	-0.523688	0.390241	-0.372222	0.399283	-0.437696	-0.426836	0.28103	-0.437683	0.456985	0.374647	-0.281426	0.418461	-0.425096
-0.379037	0.390114	0.383251	0.317032	0.355003	-0.360457	0.195661	-0.419588	-0.237566	-0.431506	-0.370636	-0.353425	0.373498	-0.373382	-0.295169	0.287216	-0.239144	-0.484629	0.154144	-0.511507	0.313563	-0.388558	0.365828	-0.435619	-0.421564	0.531546	-0.29939	0.336715	0.466101	-0.294753	0.411001	-0.467365
-0.439703	0.49381	0.52268	0.459718	0.45938	-0.332235	0.558192	-0.518246	-0.49191	-0.494664	-0.41273	-0.441215	0.45403	-0.49664	-0.474831	0.506606	-0.465075	-0.487851	0.418357	-0.512179	0.447866	-0.482103	0.52279	-0.437951	-0.484745	0.483936	-0.464274	0.479289	0.417346	-0.47581	0.440176	-0.457605
-0.409198	0.55008	0.44936	0.5186	0.445938	-0.472521	0.444985	-0.550058	-0.37248	-0.485062	-0.413085	-0.551537	0.454304	-0.482883	-0.480248	0.401007	-0.438739	-0.326702	0.456044	-0.470143	0.319283	-0.454873	0.427739	-0.464059	-0.42485	0.429282	-0.426094	0.538333	0.512893	-0.297071	0.407033	-0.418865
-0.505688	0.436851	0.510784	0.492189	0.4462	-0.448132	0.555539	-0.545146	-0.532071	-0.535421	-0.461418	-0.548138	0.50684	-0.532594	-0.451414	0.486311	-0.365203	-0.434272	0.528761	-0.467911	0.346721	-0.550621	0.419993	-0.42886	-0.474063	0.433937	-0.470856	0.492766	0.50402	-0.466161	0.457598	-0.518674
-0.438212	0.486931	0.339183	0.490853	0.417956	-0.397787	0.519116	-0.386537	-0.334455	-0.42261	-0.420861	-0.334262	0.441141	-0.430648	-0.377653	0.341426	-0.372298	-0.473808	0.426343	-0.375778	0.264268	-0.409771	0.447988	-0.357477	-0.423617	0.473338	-0.461514	0.357432	0.449189	-0.537677	0.405968	-0.415099
-0.485881	0.486167	0.442069	0.52214	0.488662	-0.477883	0.522285	-0.50953	-0.492708	-0.472111	-0.544895	-0.456074	0.441712	-0.491587	-0.475504	0.428806	-0.47638	-0.363533	0.434617	-0.448712	0.47137	-0.516042	0.466426	-0.503323	-0.411515	0.49958	-0.413822	0.446988	0.487843	-0.546751	0.445106	-0.558777
-0.480314	0.465732	0.439524	0.423759	0.427902	-0.442578	0.407025	-0.502968	-0.487643	-0.447496	-0.531801	-0.465156	0.455275	-0.416829	-0.518113	0.370465	-0.447166	-0.372552	0.491771	-0.497704	0.382948	-0.392762	0.46199	-0.548531	-0.463761	0.501037	-0.417313	0.482909	0.430854	-0.444086	0.442403	-0.521452
-0.49332	0.490845	0.417019	0.499508	0.403299	-0.474434	0.379732	-0.453712	-0.462571	-0.457291	-0.375654	-0.484465	0.380146	-0.456325	-0.437279	0.516667	-0.404178	-0.348034	0.406057	-0.530343	0.261935	-0.387586	0.361255	-0.317572	-0.484749	0.431261	-0.394441	0.289067	0.425402	-0.463763	0.506942	-0.475211
-0.484227	0.436702	0.408824	0.507163	0.500952	-0.379183	0.617882	-0.462556	-0.4243	-0.367691	-0.551272	-0.418705	0.567566	-0.350883	-0.396446	0.480599	-0.383571	-0.303486	0.563274	-0.485448	0.393766	-0.442591	0.511969	-0.471	-0.466461	0.363044	-0.5055	0.51673	0.422729	-0.473673	0.509914	-0.363932
-0.479984	0.501858	0.482081	0.428206	0.437596	-0.426114	0.569466	-0.525441	-0.503908	-0.469113	-0.410465	-0.492772	0.503969	-0.478157	-0.506531	0.378954	-0.435342	-0.411004	0.512647	-0.542051	0.51138	-0.439433	0.499013	-0.4982	-0.431876	0.451158	-0.424385	0.462675	0.48805	-0.479442	0.47375	-0.421429
-0.281793	0.413201	0.381491	0.479784	0.352011	-0.47262	0.381206	-0.350015	-0.299306	-0.420227	-0.385846	-0.418682	0.389237	-0.308378	-0.24107	0.521406	-0.444649	-0.372954	0.297841	-0.386638	0.431521	-0.465425	0.426225	-0.373232	-0.484341	0.502371	-0.432065	0.366685	0.261449	-0.368923	0.456746	-0.353011
-0.379133	0.371864	0.348997	0.332544	0.405721	-0.285666	0.434485	-0.35042	-0.493237	-0.396711	-0.400786	-0.349407	0.466334	-0.446031	-0.400501	0.437145	-0.328126	-0.442842	0.325388	-0.402129	0.43548	-0.457801	0.35675	-0.517559	-0.490894	0.574217	-0.409716	0.411481	0.43703	-0.531984	0.410871	-0.478702
-0.381876	0.402605	0.480025	0.381713	0.487088	-0.431544	0.443878	-0.300114	-0.538588	-0.387443	-0.515954	-0.433288	0.420513	-0.413382	-0.339958	0.296189	-0.438288	-0.323946	0.381416	-0.317685	0.41631	-0.415021	0.369948	-0.308455	-0.471299	0.623318	-0.472777	0.452803	0.419763	-0.300422	0.379452	-0.381404
-0.455656	0.383087	0.420782	0.455546	0.450487	-0.461726	0.516837	-0.401703	-0.467216	-0.459261	-0.371164	-0.32559	0.498792	-0.442672	-0.416926	0.490996	-0.342239	-0.314952	0.347007	-0.353595	0.32074	-0.392994	0.478765	-0.337236	-0.487189	0.477641	-0.366652	0.397502	0.471654	-0.223367	0.391965	-0.474824
-0.523907	0.458473	0.520804	0.499388	0.467823	-0.453311	0.436633	-0.487461	-0.507163	-0.448985	-0.454585	-0.508578	0.40721	-0.423837	-0.546092	0.41166	-0.504322	-0.495198	0.528487	-0.476967	0.363101	-0.427427	0.493567	-0.487542	-0.474109	0.443462	-0.484339	0.479344	0.447313	-0.515544	0.448121	-0.416043
-0.51214	0.430337	0.484149	0.494585	0.525179	-0.422373	0.351005	-0.514029	-0.529707	-0.452623	-0.486688	-0.473558	0.474972	-0.490801	-0.469141	0.577692	-0.420547	-0.393886	0.459667	-0.465986	0.545156	-0.493132	0.463556	-0.529457	-0.534099	0.36375	-0.558171	0.510338	0.518309	-0.509529	0.481623	-0.484854
-0.418991	0.44112	0.388552	0.494607	0.435705	-0.358899	0.347495	-0.443277	-0.338982	-0.470276	-0.488862	-0.443786	0.477416	-0.429227	-0.44933	0.326993	-0.432377	-0.420028	0.4006	-0.436833	0.427812	-0.358768	0.379896	-0.437948	-0.401278	0.349589	-0.444061	0.383807	0.351303	-0.394118	0.397581	-0.522083
-0.467429	0.524103	0.476891	0.353797	0.515939	-0.542936	0.602463	-0.452992	-0.504033	-0.473468	-0.51273	-0.427674	0.474978	-0.416081	-0.392801	0.507178	-0.438108	-0.428019	0.432715	-0.531506	0.46562	-0.531915	0.434542	-0.455981	-0.309967	0.318859	-0.504977	0.409165	0.397552	-0.394873	0.501834	-0.46361
-0.465919	0.431065	0.415588	0.500729	0.437476	-0.466014	0.406469	-0.410409	-0.500603	-0.48009	-0.473664	-0.418771	0.393066	-0.416861	-0.413314	0.400404	-0.520821	-0.413958	0.477479	-0.453006	0.52618	-0.503649	0.434255	-0.424644	-0.515844	0.395265	-0.424883	0.419545	0.471959	-0.450433	0.483601	-0.511433
-0.475301	0.454377	0.46742	0.411197	0.310459	-0.335266	0.539087	-0.519243	-0.467672	-0.336693	-0.522548	-0.479262	0.392972	-0.236652	-0.403837	0.412783	-0.486167	-0.39677	0.329007	-0.12382	0.451125	-0.36018	0.417371	-0.24448	-0.24742	0.554069	-0.299597	0.402654	0.301518	-0.350715	0.29647	-0.491951
-0.489308	0.408076	0.422981	0.486633	0.534847	-0.467103	0.374529	-0.426672	-0.394613	-0.439858	-0.511868	-0.395809	0.563695	-0.458491	-0.403335	0.470334	-0.510933	-0.316823	0.436752	-0.498745	0.417916	-0.367465	0.397604	-0.327599	-0.447262	0.54107	-0.51755	0.48973	0.477652	-0.329993	0.415845	-0.442285
-0.464168	0.39069	0.497419	0.531458	0.419754	-0.447333	0.399053	-0.48705	-0.544791	-0.500387	-0.521248	-0.423165	0.41492	-0.40582	-0.495986	0.445319	-0.458241	-0.403473	0.384477	-0.525107	0.44122	-0.352678	0.40024	-0.435995	-0.403422	0.369496	-0.486322	0.444058	0.523005	-0.478433	0.435748	-0.491573
-0.41174	0.489185	0.497875	0.452988	0.429477	-0.438767	0.542233	-0.410059	-0.452349	-0.502877	-0.485045	-0.421054	0.331255	-0.468576	-0.409471	0.42724	-0.526843	-0.411765	0.519985	-0.442917	0.386187	-0.555976	0.526791	-0.453499	-0.432638	0.527315	-0.418784	0.527046	0.423824	-0.468914	0.489787	-0.54093
-0.465466	0.439048	0.485357	0.407013	0.439415	-0.438277	0.501751	-0.468009	-0.497087	-0.493234	-0.489101	-0.426563	0.389758	-0.502579	-0.491297	0.449911	-0.421265	-0.509296	0.420094	-0.497926	0.449338	-0.451605	0.413613	-0.39877	-0.499916	0.3838	-0.493006	0.451644	0.42004	-0.481501	0.457651	-0.494954
-0.42219	0.231962	0.43471	0.310162	0.346217	-0.371779	0.316785	-0.339236	-0.34361	-0.330526	-0.380899	-0.424776	0.315756	-0.397953	-0.338947	0.298068	-0.414998	-0.414318	0.276418	-0.340086	0.453829	-0.384959	0.506335	-0.331783	-0.382145	0.16005	-0.375252	0.411889	0.451132	-0.452072	0.426311	-0.2821
-0.301804	0.279546	0.426716	0.406471	0.329578	-0.558607	0.588984	-0.367256	-0.350069	-0.217475	-0.37679	-0.573942	0.528542	-0.435039	-0.491864	0.416502	-0.374133	-0.438248	0.487066	-0.418643	0.550262	-0.52882	0.35879	-0.476844	-0.360979	0.203203	-0.36828	0.430511	0.507448	-0.58512	0.426903	-0.267316
-0.444155	0.418865	0.359412	0.41156	0.479473	-0.401731	0.404595	-0.392328	-0.464717	-0.409601	-0.468718	-0.501673	0.508383	-0.451465	-0.407031	0.349717	-0.483355	-0.325424	0.470033	-0.380523	0.398201	-0.397294	0.413311	-0.487755	-0.51913	0.344603	-0.445679	0.421659	0.420314	-0.507649	0.348559	-0.487473
-0.474851	0.457008	0.493428	0.509208	0.54157	-0.379814	0.386428	-0.509926	-0.540634	-0.526075	-0.471765	-0.433845	0.494623	-0.486127	-0.46233	0.40544	-0.466352	-0.482715	0.469791	-0.450789	0.497113	-0.427821	0.517109	-0.456108	-0.457005	0.535532	-0.387246	0.480955	0.426152	-0.438818	0.442247	-0.448589
-0.505218	0.547952	0.547405	0.499693	0.386014	-0.52639	0.474425	-0.520122	-0.43161	-0.414928	-0.454985	-0.491712	0.499334	-0.440043	-0.396799	0.483722	-0.515622	-0.533396	0.469738	-0.505689	0.423508	-0.546567	0.508382	-0.449654	-0.488744	0.422973	-0.451278	0.466358	0.415765	-0.368712	0.512974	-0.502581
